<?xml version="1.0"?>
<opencv_storage>
<cascade>
  <stageType>BOOST</stageType>
  <featureType>HAAR</featureType>
  <height>10</height>
  <width>25</width>
  <stageParams>
    <boostType>GAB</boostType>
    <minHitRate>9.9000000953674316e-01</minHitRate>
    <maxFalseAlarm>5.0000000000000000e-01</maxFalseAlarm>
    <weightTrimRate>9.4999999999999996e-01</weightTrimRate>
    <maxDepth>1</maxDepth>
    <maxWeakCount>100</maxWeakCount></stageParams>
  <featureParams>
    <maxCatCount>0</maxCatCount>
    <featSize>1</featSize>
    <mode>ALL</mode></featureParams>
  <stageNum>20</stageNum>
  <stages>
    <!-- stage 0 -->
    <_>
      <maxWeakCount>7</maxWeakCount>
      <stageThreshold>-8.3187663555145264e-01</stageThreshold>
      <weakClassifiers>
        <_>
          <internalNodes>
            0 -1 209 -1.5405099838972092e-02</internalNodes>
          <leafValues>
            5.1401871442794800e-01 -4.5768567919731140e-01</leafValues></_>
        <_>
          <internalNodes>
            0 -1 255 -1.5862371772527695e-02</internalNodes>
          <leafValues>
            7.3306101560592651e-01 -2.4439463019371033e-01</leafValues></_>
        <_>
          <internalNodes>
            0 -1 224 7.8006172552704811e-03</internalNodes>
          <leafValues>
            -2.5624647736549377e-01 7.5735849142074585e-01</leafValues></_>
        <_>
          <internalNodes>
            0 -1 77 -3.3556255511939526e-03</internalNodes>
          <leafValues>
            7.4937772750854492e-01 -1.4816296100616455e-01</leafValues></_>
        <_>
          <internalNodes>
            0 -1 113 2.9502138495445251e-03</internalNodes>
          <leafValues>
            -1.6223664581775665e-01 6.8011134862899780e-01</leafValues></_>
        <_>
          <internalNodes>
            0 -1 113 -2.6375036686658859e-03</internalNodes>
          <leafValues>
            6.0713624954223633e-01 -2.7041614055633545e-01</leafValues></_>
        <_>
          <internalNodes>
            0 -1 215 -6.7814029753208160e-03</internalNodes>
          <leafValues>
            7.1988797187805176e-01 -1.3508208096027374e-01</leafValues></_></weakClassifiers></_>
    <!-- stage 1 -->
    <_>
      <maxWeakCount>9</maxWeakCount>
      <stageThreshold>-7.9675579071044922e-01</stageThreshold>
      <weakClassifiers>
        <_>
          <internalNodes>
            0 -1 243 3.2849460840225220e-02</internalNodes>
          <leafValues>
            -4.0766549110412598e-01 4.1104295849800110e-01</leafValues></_>
        <_>
          <internalNodes>
            0 -1 265 9.1530140489339828e-03</internalNodes>
          <leafValues>
            -1.9933013617992401e-01 6.4670550823211670e-01</leafValues></_>
        <_>
          <internalNodes>
            0 -1 50 -1.9852161407470703e-02</internalNodes>
          <leafValues>
            6.0239428281784058e-01 -2.4952311813831329e-01</leafValues></_>
        <_>
          <internalNodes>
            0 -1 201 -1.6508579254150391e-02</internalNodes>
          <leafValues>
            7.9509383440017700e-01 -1.2763498723506927e-01</leafValues></_>
        <_>
          <internalNodes>
            0 -1 33 -1.4682343229651451e-02</internalNodes>
          <leafValues>
            5.3525638580322266e-01 -2.0875039696693420e-01</leafValues></_>
        <_>
          <internalNodes>
            0 -1 89 -1.7850022763013840e-02</internalNodes>
          <leafValues>
            7.1137660741806030e-01 -1.7180302739143372e-01</leafValues></_>
        <_>
          <internalNodes>
            0 -1 84 -1.9073092937469482e-01</internalNodes>
          <leafValues>
            -9.3179327249526978e-01 1.7738434672355652e-01</leafValues></_>
        <_>
          <internalNodes>
            0 -1 235 2.2254280745983124e-02</internalNodes>
          <leafValues>
            -2.0249682664871216e-01 5.7278603315353394e-01</leafValues></_>
        <_>
          <internalNodes>
            0 -1 281 3.9084637537598610e-03</internalNodes>
          <leafValues>
            -1.5094293653964996e-01 6.5765297412872314e-01</leafValues></_></weakClassifiers></_>
    <!-- stage 2 -->
    <_>
      <maxWeakCount>11</maxWeakCount>
      <stageThreshold>-8.3192694187164307e-01</stageThreshold>
      <weakClassifiers>
        <_>
          <internalNodes>
            0 -1 294 -3.9029333274811506e-03</internalNodes>
          <leafValues>
            5.2173912525177002e-01 -2.7374300360679626e-01</leafValues></_>
        <_>
          <internalNodes>
            0 -1 292 9.6258157864212990e-03</internalNodes>
          <leafValues>
            -1.3601619005203247e-01 7.6882797479629517e-01</leafValues></_>
        <_>
          <internalNodes>
            0 -1 53 1.2564146891236305e-02</internalNodes>
          <leafValues>
            -1.4067928493022919e-01 6.3977795839309692e-01</leafValues></_>
        <_>
          <internalNodes>
            0 -1 241 -1.9686322659254074e-02</internalNodes>
          <leafValues>
            -7.0617920160293579e-01 1.3593946397304535e-01</leafValues></_>
        <_>
          <internalNodes>
            0 -1 186 3.7218052893877029e-03</internalNodes>
          <leafValues>
            -1.8157523870468140e-01 5.7076704502105713e-01</leafValues></_>
        <_>
          <internalNodes>
            0 -1 194 2.4179656058549881e-02</internalNodes>
          <leafValues>
            -1.0195492953062057e-01 6.5578627586364746e-01</leafValues></_>
        <_>
          <internalNodes>
            0 -1 141 3.7867940962314606e-02</internalNodes>
          <leafValues>
            -2.6220121979713440e-01 4.7077026963233948e-01</leafValues></_>
        <_>
          <internalNodes>
            0 -1 310 6.4880205318331718e-03</internalNodes>
          <leafValues>
            -1.5211573243141174e-01 9.0179032087326050e-01</leafValues></_>
        <_>
          <internalNodes>
            0 -1 183 6.1254523694515228e-02</internalNodes>
          <leafValues>
            -1.5081498026847839e-01 5.1010304689407349e-01</leafValues></_>
        <_>
          <internalNodes>
            0 -1 88 1.6312124207615852e-02</internalNodes>
          <leafValues>
            -1.0700686275959015e-01 6.9866704940795898e-01</leafValues></_>
        <_>
          <internalNodes>
            0 -1 24 -1.5814915299415588e-02</internalNodes>
          <leafValues>
            6.7723441123962402e-01 -1.2972377240657806e-01</leafValues></_></weakClassifiers></_>
    <!-- stage 3 -->
    <_>
      <maxWeakCount>13</maxWeakCount>
      <stageThreshold>-9.7677791118621826e-01</stageThreshold>
      <weakClassifiers>
        <_>
          <internalNodes>
            0 -1 225 -1.2545678764581680e-02</internalNodes>
          <leafValues>
            4.7317072749137878e-01 -2.8345322608947754e-01</leafValues></_>
        <_>
          <internalNodes>
            0 -1 56 -2.9279768466949463e-02</internalNodes>
          <leafValues>
            3.1615668535232544e-01 -2.8813743591308594e-01</leafValues></_>
        <_>
          <internalNodes>
            0 -1 78 -1.6957464814186096e-01</internalNodes>
          <leafValues>
            -6.4980018138885498e-01 1.1435563117265701e-01</leafValues></_>
        <_>
          <internalNodes>
            0 -1 259 -8.3248727023601532e-03</internalNodes>
          <leafValues>
            6.6003733873367310e-01 -8.2267843186855316e-02</leafValues></_>
        <_>
          <internalNodes>
            0 -1 46 -2.5556970387697220e-02</internalNodes>
          <leafValues>
            6.1621767282485962e-01 -1.4995449781417847e-01</leafValues></_>
        <_>
          <internalNodes>
            0 -1 104 -5.6742727756500244e-03</internalNodes>
          <leafValues>
            6.5068322420120239e-01 -1.1757034808397293e-01</leafValues></_>
        <_>
          <internalNodes>
            0 -1 99 1.1324308067560196e-01</internalNodes>
          <leafValues>
            9.5786534249782562e-02 -8.6307287216186523e-01</leafValues></_>
        <_>
          <internalNodes>
            0 -1 163 -7.4858292937278748e-03</internalNodes>
          <leafValues>
            5.2925235033035278e-01 -1.6179135441780090e-01</leafValues></_>
        <_>
          <internalNodes>
            0 -1 115 -8.8568497449159622e-03</internalNodes>
          <leafValues>
            5.0825232267379761e-01 -1.6525439918041229e-01</leafValues></_>
        <_>
          <internalNodes>
            0 -1 327 3.0717963818460703e-03</internalNodes>
          <leafValues>
            -1.3408778607845306e-01 5.0104033946990967e-01</leafValues></_>
        <_>
          <internalNodes>
            0 -1 182 4.4888474047183990e-02</internalNodes>
          <leafValues>
            8.3992257714271545e-02 -8.9945811033248901e-01</leafValues></_>
        <_>
          <internalNodes>
            0 -1 6 -1.1417279951274395e-02</internalNodes>
          <leafValues>
            2.5293734669685364e-01 -3.2293555140495300e-01</leafValues></_>
        <_>
          <internalNodes>
            0 -1 184 5.4172776639461517e-02</internalNodes>
          <leafValues>
            -1.4790342748165131e-01 4.7860047221183777e-01</leafValues></_></weakClassifiers></_>
    <!-- stage 4 -->
    <_>
      <maxWeakCount>15</maxWeakCount>
      <stageThreshold>-8.8973760604858398e-01</stageThreshold>
      <weakClassifiers>
        <_>
          <internalNodes>
            0 -1 265 1.3030466623604298e-02</internalNodes>
          <leafValues>
            -2.4047306180000305e-01 5.9712231159210205e-01</leafValues></_>
        <_>
          <internalNodes>
            0 -1 308 1.3539557345211506e-02</internalNodes>
          <leafValues>
            -1.1790644377470016e-01 5.8649545907974243e-01</leafValues></_>
        <_>
          <internalNodes>
            0 -1 91 -3.4217666834592819e-02</internalNodes>
          <leafValues>
            5.3602719306945801e-01 -1.3996438682079315e-01</leafValues></_>
        <_>
          <internalNodes>
            0 -1 210 -7.0737954229116440e-03</internalNodes>
          <leafValues>
            4.3363612890243530e-01 -1.8598653376102448e-01</leafValues></_>
        <_>
          <internalNodes>
            0 -1 165 -6.7391440272331238e-02</internalNodes>
          <leafValues>
            -7.0274907350540161e-01 1.0563663393259048e-01</leafValues></_>
        <_>
          <internalNodes>
            0 -1 123 2.4081161245703697e-02</internalNodes>
          <leafValues>
            -1.0970243066549301e-01 5.5390131473541260e-01</leafValues></_>
        <_>
          <internalNodes>
            0 -1 63 2.6035357266664505e-02</internalNodes>
          <leafValues>
            -1.2628188729286194e-01 5.5898708105087280e-01</leafValues></_>
        <_>
          <internalNodes>
            0 -1 153 2.1149072796106339e-02</internalNodes>
          <leafValues>
            1.2683609127998352e-01 -5.5862033367156982e-01</leafValues></_>
        <_>
          <internalNodes>
            0 -1 147 2.0412292331457138e-02</internalNodes>
          <leafValues>
            -1.3646025955677032e-01 5.7811850309371948e-01</leafValues></_>
        <_>
          <internalNodes>
            0 -1 92 8.3647333085536957e-03</internalNodes>
          <leafValues>
            -1.1167287826538086e-01 6.3539564609527588e-01</leafValues></_>
        <_>
          <internalNodes>
            0 -1 31 -3.3170371316373348e-03</internalNodes>
          <leafValues>
            5.0133675336837769e-01 -1.4586570858955383e-01</leafValues></_>
        <_>
          <internalNodes>
            0 -1 317 3.0822523403912783e-03</internalNodes>
          <leafValues>
            -2.6887178421020508e-01 2.9110231995582581e-01</leafValues></_>
        <_>
          <internalNodes>
            0 -1 300 8.5734520107507706e-03</internalNodes>
          <leafValues>
            -1.0553082078695297e-01 7.3746836185455322e-01</leafValues></_>
        <_>
          <internalNodes>
            0 -1 242 1.6205165535211563e-02</internalNodes>
          <leafValues>
            -1.2030971050262451e-01 5.3512811660766602e-01</leafValues></_>
        <_>
          <internalNodes>
            0 -1 119 -1.0976961255073547e-01</internalNodes>
          <leafValues>
            6.0700029134750366e-01 -1.5618361532688141e-01</leafValues></_></weakClassifiers></_>
    <!-- stage 5 -->
    <_>
      <maxWeakCount>15</maxWeakCount>
      <stageThreshold>-9.1418910026550293e-01</stageThreshold>
      <weakClassifiers>
        <_>
          <internalNodes>
            0 -1 73 8.8543184101581573e-03</internalNodes>
          <leafValues>
            -1.9179734587669373e-01 8.3098590373992920e-01</leafValues></_>
        <_>
          <internalNodes>
            0 -1 85 9.8072532564401627e-03</internalNodes>
          <leafValues>
            -1.5427900850772858e-01 5.1002681255340576e-01</leafValues></_>
        <_>
          <internalNodes>
            0 -1 19 1.7460480332374573e-02</internalNodes>
          <leafValues>
            -1.0148786753416061e-01 6.6658723354339600e-01</leafValues></_>
        <_>
          <internalNodes>
            0 -1 257 4.3037161231040955e-02</internalNodes>
          <leafValues>
            -2.0551982522010803e-01 3.3906158804893494e-01</leafValues></_>
        <_>
          <internalNodes>
            0 -1 218 -1.9351796945556998e-03</internalNodes>
          <leafValues>
            3.8904908299446106e-01 -1.6945223510265350e-01</leafValues></_>
        <_>
          <internalNodes>
            0 -1 178 -5.5726382881402969e-02</internalNodes>
          <leafValues>
            -8.7633997201919556e-01 9.9821984767913818e-02</leafValues></_>
        <_>
          <internalNodes>
            0 -1 68 6.0716746374964714e-03</internalNodes>
          <leafValues>
            -1.0824653506278992e-01 6.6034561395645142e-01</leafValues></_>
        <_>
          <internalNodes>
            0 -1 275 -3.7414180114865303e-03</internalNodes>
          <leafValues>
            4.5786160230636597e-01 -1.3125358521938324e-01</leafValues></_>
        <_>
          <internalNodes>
            0 -1 263 8.8176578283309937e-03</internalNodes>
          <leafValues>
            -1.8818713724613190e-01 3.6648124456405640e-01</leafValues></_>
        <_>
          <internalNodes>
            0 -1 246 4.3039198499172926e-04</internalNodes>
          <leafValues>
            1.7023558914661407e-01 -4.3398660421371460e-01</leafValues></_>
        <_>
          <internalNodes>
            0 -1 22 -1.7384041845798492e-01</internalNodes>
          <leafValues>
            4.2062205076217651e-01 -1.6444191336631775e-01</leafValues></_>
        <_>
          <internalNodes>
            0 -1 220 -9.9763898178935051e-03</internalNodes>
          <leafValues>
            5.0562644004821777e-01 -1.5158152580261230e-01</leafValues></_>
        <_>
          <internalNodes>
            0 -1 4 5.8281812816858292e-03</internalNodes>
          <leafValues>
            -1.6150297224521637e-01 4.2211571335792542e-01</leafValues></_>
        <_>
          <internalNodes>
            0 -1 177 3.6234438419342041e-02</internalNodes>
          <leafValues>
            1.9111518561840057e-01 -3.8208866119384766e-01</leafValues></_>
        <_>
          <internalNodes>
            0 -1 38 -2.5002753362059593e-02</internalNodes>
          <leafValues>
            4.1639491915702820e-01 -2.0228028297424316e-01</leafValues></_></weakClassifiers></_>
    <!-- stage 6 -->
    <_>
      <maxWeakCount>15</maxWeakCount>
      <stageThreshold>-8.0138224363327026e-01</stageThreshold>
      <weakClassifiers>
        <_>
          <internalNodes>
            0 -1 227 1.3314755633473396e-03</internalNodes>
          <leafValues>
            3.3189032226800919e-02 -5.9420287609100342e-01</leafValues></_>
        <_>
          <internalNodes>
            0 -1 190 4.3435595929622650e-02</internalNodes>
          <leafValues>
            6.1005242168903351e-02 -8.2255834341049194e-01</leafValues></_>
        <_>
          <internalNodes>
            0 -1 145 1.5364458784461021e-02</internalNodes>
          <leafValues>
            -1.0625497251749039e-01 5.4542881250381470e-01</leafValues></_>
        <_>
          <internalNodes>
            0 -1 253 6.4176917076110840e-03</internalNodes>
          <leafValues>
            -9.6123248338699341e-02 7.0101511478424072e-01</leafValues></_>
        <_>
          <internalNodes>
            0 -1 100 -6.0592414811253548e-03</internalNodes>
          <leafValues>
            3.7184366583824158e-01 -1.7930409312248230e-01</leafValues></_>
        <_>
          <internalNodes>
            0 -1 89 -1.2708859518170357e-02</internalNodes>
          <leafValues>
            4.1073137521743774e-01 -1.6202871501445770e-01</leafValues></_>
        <_>
          <internalNodes>
            0 -1 137 3.3263522200286388e-03</internalNodes>
          <leafValues>
            -1.4224924147129059e-01 4.7119051218032837e-01</leafValues></_>
        <_>
          <internalNodes>
            0 -1 208 -3.6008735187351704e-03</internalNodes>
          <leafValues>
            -5.4957807064056396e-01 1.1990229785442352e-01</leafValues></_>
        <_>
          <internalNodes>
            0 -1 81 -5.5035385303199291e-03</internalNodes>
          <leafValues>
            5.9863847494125366e-01 -1.0061128437519073e-01</leafValues></_>
        <_>
          <internalNodes>
            0 -1 207 3.1814365647733212e-03</internalNodes>
          <leafValues>
            1.1370156705379486e-01 -6.4876282215118408e-01</leafValues></_>
        <_>
          <internalNodes>
            0 -1 291 2.2252290509641171e-03</internalNodes>
          <leafValues>
            -1.8518052995204926e-01 3.6685195565223694e-01</leafValues></_>
        <_>
          <internalNodes>
            0 -1 219 -1.7560394480824471e-03</internalNodes>
          <leafValues>
            3.4922039508819580e-01 -1.7524184286594391e-01</leafValues></_>
        <_>
          <internalNodes>
            0 -1 108 5.1856145262718201e-02</internalNodes>
          <leafValues>
            -9.5922335982322693e-02 6.5465933084487915e-01</leafValues></_>
        <_>
          <internalNodes>
            0 -1 237 1.9431348890066147e-02</internalNodes>
          <leafValues>
            -3.1705662608146667e-01 2.2527822852134705e-01</leafValues></_>
        <_>
          <internalNodes>
            0 -1 65 2.9337279498577118e-02</internalNodes>
          <leafValues>
            -9.1584533452987671e-02 6.5582019090652466e-01</leafValues></_></weakClassifiers></_>
    <!-- stage 7 -->
    <_>
      <maxWeakCount>17</maxWeakCount>
      <stageThreshold>-8.2339811325073242e-01</stageThreshold>
      <weakClassifiers>
        <_>
          <internalNodes>
            0 -1 21 1.5222898684442043e-02</internalNodes>
          <leafValues>
            -1.9117647409439087e-01 6.6666668653488159e-01</leafValues></_>
        <_>
          <internalNodes>
            0 -1 230 1.7598847625777125e-03</internalNodes>
          <leafValues>
            1.2782922387123108e-01 -4.7254088521003723e-01</leafValues></_>
        <_>
          <internalNodes>
            0 -1 136 -2.8387024998664856e-02</internalNodes>
          <leafValues>
            5.8856236934661865e-01 -1.0170018672943115e-01</leafValues></_>
        <_>
          <internalNodes>
            0 -1 11 3.6659929901361465e-02</internalNodes>
          <leafValues>
            1.2582007050514221e-01 -6.1417400836944580e-01</leafValues></_>
        <_>
          <internalNodes>
            0 -1 311 5.8014784008264542e-03</internalNodes>
          <leafValues>
            -2.4566596746444702e-01 2.2138413786888123e-01</leafValues></_>
        <_>
          <internalNodes>
            0 -1 202 -8.0908656120300293e-02</internalNodes>
          <leafValues>
            -8.3053737878799438e-01 1.0461309552192688e-01</leafValues></_>
        <_>
          <internalNodes>
            0 -1 30 -3.0525261163711548e-01</internalNodes>
          <leafValues>
            -7.0417302846908569e-01 4.7148782759904861e-02</leafValues></_>
        <_>
          <internalNodes>
            0 -1 144 3.3927351236343384e-02</internalNodes>
          <leafValues>
            5.7202778756618500e-02 -8.8675212860107422e-01</leafValues></_>
        <_>
          <internalNodes>
            0 -1 134 1.8149506300687790e-02</internalNodes>
          <leafValues>
            -9.8448500037193298e-02 5.1298874616622925e-01</leafValues></_>
        <_>
          <internalNodes>
            0 -1 79 5.1431160420179367e-02</internalNodes>
          <leafValues>
            9.7148515284061432e-02 -6.6278809309005737e-01</leafValues></_>
        <_>
          <internalNodes>
            0 -1 98 -2.9271595180034637e-02</internalNodes>
          <leafValues>
            5.9838926792144775e-01 -1.0730155557394028e-01</leafValues></_>
        <_>
          <internalNodes>
            0 -1 42 1.1097279377281666e-02</internalNodes>
          <leafValues>
            -2.1760047972202301e-01 3.0376031994819641e-01</leafValues></_>
        <_>
          <internalNodes>
            0 -1 252 -3.3783931285142899e-02</internalNodes>
          <leafValues>
            -8.4864103794097900e-01 6.9842100143432617e-02</leafValues></_>
        <_>
          <internalNodes>
            0 -1 272 -7.0855757221579552e-03</internalNodes>
          <leafValues>
            3.7109413743019104e-01 -1.8374037742614746e-01</leafValues></_>
        <_>
          <internalNodes>
            0 -1 288 9.8440349102020264e-03</internalNodes>
          <leafValues>
            -1.1490702629089355e-01 5.0710731744766235e-01</leafValues></_>
        <_>
          <internalNodes>
            0 -1 36 -1.7137292772531509e-02</internalNodes>
          <leafValues>
            3.1892073154449463e-01 -1.8151439726352692e-01</leafValues></_>
        <_>
          <internalNodes>
            0 -1 258 8.1559836864471436e-02</internalNodes>
          <leafValues>
            6.8061590194702148e-02 -9.1922396421432495e-01</leafValues></_></weakClassifiers></_>
    <!-- stage 8 -->
    <_>
      <maxWeakCount>19</maxWeakCount>
      <stageThreshold>-7.0054286718368530e-01</stageThreshold>
      <weakClassifiers>
        <_>
          <internalNodes>
            0 -1 53 2.8747238218784332e-02</internalNodes>
          <leafValues>
            -1.7349398136138916e-01 6.2857145071029663e-01</leafValues></_>
        <_>
          <internalNodes>
            0 -1 179 -7.6180949807167053e-02</internalNodes>
          <leafValues>
            4.5449882745742798e-01 -1.4478577673435211e-01</leafValues></_>
        <_>
          <internalNodes>
            0 -1 151 -2.7708664536476135e-01</internalNodes>
          <leafValues>
            5.8596974611282349e-01 -9.9652536213397980e-02</leafValues></_>
        <_>
          <internalNodes>
            0 -1 45 1.2499213963747025e-01</internalNodes>
          <leafValues>
            -8.1742927432060242e-02 5.0385963916778564e-01</leafValues></_>
        <_>
          <internalNodes>
            0 -1 40 7.4517950415611267e-02</internalNodes>
          <leafValues>
            -1.4469024538993835e-01 3.7260723114013672e-01</leafValues></_>
        <_>
          <internalNodes>
            0 -1 47 3.2635629177093506e-01</internalNodes>
          <leafValues>
            6.8098604679107666e-02 -8.1569784879684448e-01</leafValues></_>
        <_>
          <internalNodes>
            0 -1 277 -1.2199704535305500e-02</internalNodes>
          <leafValues>
            4.2949903011322021e-01 -1.1655352264642715e-01</leafValues></_>
        <_>
          <internalNodes>
            0 -1 280 -3.4551345743238926e-03</internalNodes>
          <leafValues>
            3.4618583321571350e-01 -1.4658693969249725e-01</leafValues></_>
        <_>
          <internalNodes>
            0 -1 276 6.0734567232429981e-03</internalNodes>
          <leafValues>
            -1.3157738745212555e-01 4.0030482411384583e-01</leafValues></_>
        <_>
          <internalNodes>
            0 -1 129 6.6239461302757263e-02</internalNodes>
          <leafValues>
            6.7254856228828430e-02 -8.6444312334060669e-01</leafValues></_>
        <_>
          <internalNodes>
            0 -1 185 -2.1530343219637871e-03</internalNodes>
          <leafValues>
            3.2894864678382874e-01 -1.8247483670711517e-01</leafValues></_>
        <_>
          <internalNodes>
            0 -1 8 -2.2495165467262268e-02</internalNodes>
          <leafValues>
            3.0626636743545532e-01 -2.1568091213703156e-01</leafValues></_>
        <_>
          <internalNodes>
            0 -1 158 -4.4620599597692490e-02</internalNodes>
          <leafValues>
            4.9080759286880493e-01 -9.1216966509819031e-02</leafValues></_>
        <_>
          <internalNodes>
            0 -1 70 -7.0405006408691406e-03</internalNodes>
          <leafValues>
            5.9735620021820068e-01 -8.6908005177974701e-02</leafValues></_>
        <_>
          <internalNodes>
            0 -1 67 3.0145458877086639e-02</internalNodes>
          <leafValues>
            -1.4190839231014252e-01 3.6318865418434143e-01</leafValues></_>
        <_>
          <internalNodes>
            0 -1 236 -9.7096953541040421e-03</internalNodes>
          <leafValues>
            4.0299877524375916e-01 -1.4361566305160522e-01</leafValues></_>
        <_>
          <internalNodes>
            0 -1 264 5.2097300067543983e-03</internalNodes>
          <leafValues>
            -1.4854404330253601e-01 3.6223927140235901e-01</leafValues></_>
        <_>
          <internalNodes>
            0 -1 143 -4.1004814207553864e-02</internalNodes>
          <leafValues>
            4.1976639628410339e-01 -1.3156835734844208e-01</leafValues></_>
        <_>
          <internalNodes>
            0 -1 101 -4.5842379331588745e-03</internalNodes>
          <leafValues>
            3.1638324260711670e-01 -1.8126298487186432e-01</leafValues></_></weakClassifiers></_>
    <!-- stage 9 -->
    <_>
      <maxWeakCount>19</maxWeakCount>
      <stageThreshold>-7.2499489784240723e-01</stageThreshold>
      <weakClassifiers>
        <_>
          <internalNodes>
            0 -1 9 5.6453421711921692e-02</internalNodes>
          <leafValues>
            -2.2861149907112122e-01 3.3689838647842407e-01</leafValues></_>
        <_>
          <internalNodes>
            0 -1 114 1.1766105890274048e-02</internalNodes>
          <leafValues>
            -1.3548265397548676e-01 3.5783392190933228e-01</leafValues></_>
        <_>
          <internalNodes>
            0 -1 72 1.1132274568080902e-01</internalNodes>
          <leafValues>
            -7.8081004321575165e-02 7.7945232391357422e-01</leafValues></_>
        <_>
          <internalNodes>
            0 -1 180 -3.4464441705495119e-03</internalNodes>
          <leafValues>
            3.7987890839576721e-01 -1.3944655656814575e-01</leafValues></_>
        <_>
          <internalNodes>
            0 -1 82 -2.2318454459309578e-02</internalNodes>
          <leafValues>
            6.0893744230270386e-01 -6.6430807113647461e-02</leafValues></_>
        <_>
          <internalNodes>
            0 -1 301 -1.0922844521701336e-02</internalNodes>
          <leafValues>
            5.1439809799194336e-01 -1.0563691705465317e-01</leafValues></_>
        <_>
          <internalNodes>
            0 -1 330 -6.8639507517218590e-03</internalNodes>
          <leafValues>
            3.3360305428504944e-01 -1.5494331717491150e-01</leafValues></_>
        <_>
          <internalNodes>
            0 -1 206 -1.4189882203936577e-03</internalNodes>
          <leafValues>
            1.3895472884178162e-01 -3.8087886571884155e-01</leafValues></_>
        <_>
          <internalNodes>
            0 -1 69 3.5749807953834534e-02</internalNodes>
          <leafValues>
            1.4277273416519165e-01 -3.8267889618873596e-01</leafValues></_>
        <_>
          <internalNodes>
            0 -1 194 1.7654422670602798e-02</internalNodes>
          <leafValues>
            -1.0096698999404907e-01 4.5870557427406311e-01</leafValues></_>
        <_>
          <internalNodes>
            0 -1 142 -3.6272048950195312e-02</internalNodes>
          <leafValues>
            4.5471867918968201e-01 -1.3355024158954620e-01</leafValues></_>
        <_>
          <internalNodes>
            0 -1 46 -9.1672120615839958e-03</internalNodes>
          <leafValues>
            2.9516315460205078e-01 -1.9967176020145416e-01</leafValues></_>
        <_>
          <internalNodes>
            0 -1 113 -8.4485607221722603e-03</internalNodes>
          <leafValues>
            6.1397325992584229e-01 -7.1925662457942963e-02</leafValues></_>
        <_>
          <internalNodes>
            0 -1 285 1.2866634130477905e-01</internalNodes>
          <leafValues>
            8.4974572062492371e-02 -6.9898980855941772e-01</leafValues></_>
        <_>
          <internalNodes>
            0 -1 274 3.7278532981872559e-02</internalNodes>
          <leafValues>
            -1.7029716074466705e-01 3.6658656597137451e-01</leafValues></_>
        <_>
          <internalNodes>
            0 -1 318 1.9441707059741020e-02</internalNodes>
          <leafValues>
            -1.0805661231279373e-01 4.2967358231544495e-01</leafValues></_>
        <_>
          <internalNodes>
            0 -1 27 1.9062817096710205e-01</internalNodes>
          <leafValues>
            -6.8379715085029602e-02 7.3998737335205078e-01</leafValues></_>
        <_>
          <internalNodes>
            0 -1 284 -3.6232873797416687e-02</internalNodes>
          <leafValues>
            5.4152721166610718e-01 -8.4376543760299683e-02</leafValues></_>
        <_>
          <internalNodes>
            0 -1 298 1.5883196145296097e-02</internalNodes>
          <leafValues>
            -9.7994022071361542e-02 5.6536787748336792e-01</leafValues></_></weakClassifiers></_>
    <!-- stage 10 -->
    <_>
      <maxWeakCount>27</maxWeakCount>
      <stageThreshold>-9.2913794517517090e-01</stageThreshold>
      <weakClassifiers>
        <_>
          <internalNodes>
            0 -1 159 3.8649525493383408e-02</internalNodes>
          <leafValues>
            -1.8999999761581421e-01 5.1999998092651367e-01</leafValues></_>
        <_>
          <internalNodes>
            0 -1 102 -1.3516208529472351e-01</internalNodes>
          <leafValues>
            -8.0340194702148438e-01 6.4727865159511566e-02</leafValues></_>
        <_>
          <internalNodes>
            0 -1 28 -7.6216921210289001e-02</internalNodes>
          <leafValues>
            5.8983367681503296e-01 -7.2089008986949921e-02</leafValues></_>
        <_>
          <internalNodes>
            0 -1 170 3.8594447076320648e-02</internalNodes>
          <leafValues>
            -1.0490056872367859e-01 4.6117860078811646e-01</leafValues></_>
        <_>
          <internalNodes>
            0 -1 126 2.8604138642549515e-02</internalNodes>
          <leafValues>
            -1.4214047789573669e-01 4.0195062756538391e-01</leafValues></_>
        <_>
          <internalNodes>
            0 -1 249 7.3596537113189697e-02</internalNodes>
          <leafValues>
            4.0122002363204956e-02 -7.2096598148345947e-01</leafValues></_>
        <_>
          <internalNodes>
            0 -1 214 9.7205303609371185e-02</internalNodes>
          <leafValues>
            -8.5454180836677551e-02 5.3109866380691528e-01</leafValues></_>
        <_>
          <internalNodes>
            0 -1 221 -1.0711841285228729e-02</internalNodes>
          <leafValues>
            4.1796794533729553e-01 -1.4982415735721588e-01</leafValues></_>
        <_>
          <internalNodes>
            0 -1 116 1.8058814108371735e-02</internalNodes>
          <leafValues>
            -7.4121944606304169e-02 7.4505549669265747e-01</leafValues></_>
        <_>
          <internalNodes>
            0 -1 303 9.8004695028066635e-03</internalNodes>
          <leafValues>
            -7.7382683753967285e-02 6.4511287212371826e-01</leafValues></_>
        <_>
          <internalNodes>
            0 -1 311 1.0314026847481728e-02</internalNodes>
          <leafValues>
            -1.9793701171875000e-01 2.7750596404075623e-01</leafValues></_>
        <_>
          <internalNodes>
            0 -1 112 -4.5552901923656464e-02</internalNodes>
          <leafValues>
            4.6845990419387817e-01 -1.1105028539896011e-01</leafValues></_>
        <_>
          <internalNodes>
            0 -1 223 3.3984046895056963e-03</internalNodes>
          <leafValues>
            -1.4644396305084229e-01 4.0149316191673279e-01</leafValues></_>
        <_>
          <internalNodes>
            0 -1 193 -3.0414037406444550e-02</internalNodes>
          <leafValues>
            -9.4239288568496704e-01 6.6562034189701080e-02</leafValues></_>
        <_>
          <internalNodes>
            0 -1 286 7.6026292517781258e-03</internalNodes>
          <leafValues>
            -1.0421058535575867e-01 5.9344506263732910e-01</leafValues></_>
        <_>
          <internalNodes>
            0 -1 146 1.1205311864614487e-01</internalNodes>
          <leafValues>
            7.7526509761810303e-02 -8.6929076910018921e-01</leafValues></_>
        <_>
          <internalNodes>
            0 -1 329 5.4217367433011532e-03</internalNodes>
          <leafValues>
            -1.3093100488185883e-01 4.2741245031356812e-01</leafValues></_>
        <_>
          <internalNodes>
            0 -1 20 -8.2812055945396423e-02</internalNodes>
          <leafValues>
            -7.3585969209671021e-01 8.2826122641563416e-02</leafValues></_>
        <_>
          <internalNodes>
            0 -1 245 -1.2162022292613983e-02</internalNodes>
          <leafValues>
            -6.2669938802719116e-01 8.2803443074226379e-02</leafValues></_>
        <_>
          <internalNodes>
            0 -1 25 -1.7510034143924713e-02</internalNodes>
          <leafValues>
            4.6084421873092651e-01 -1.0795497149229050e-01</leafValues></_>
        <_>
          <internalNodes>
            0 -1 14 -2.8236112557351589e-03</internalNodes>
          <leafValues>
            -3.3952528238296509e-01 1.4434976875782013e-01</leafValues></_>
        <_>
          <internalNodes>
            0 -1 37 5.5555412545800209e-03</internalNodes>
          <leafValues>
            -1.4646369218826294e-01 3.2822662591934204e-01</leafValues></_>
        <_>
          <internalNodes>
            0 -1 138 -3.9644330739974976e-02</internalNodes>
          <leafValues>
            5.3654783964157104e-01 -9.1467574238777161e-02</leafValues></_>
        <_>
          <internalNodes>
            0 -1 124 -1.4853968285024166e-02</internalNodes>
          <leafValues>
            3.6953452229499817e-01 -1.2834809720516205e-01</leafValues></_>
        <_>
          <internalNodes>
            0 -1 240 -2.1728157997131348e-02</internalNodes>
          <leafValues>
            4.6340215206146240e-01 -1.1195511370897293e-01</leafValues></_>
        <_>
          <internalNodes>
            0 -1 217 -3.0681675300002098e-02</internalNodes>
          <leafValues>
            -5.9910839796066284e-01 9.6402853727340698e-02</leafValues></_>
        <_>
          <internalNodes>
            0 -1 262 4.1244826279580593e-03</internalNodes>
          <leafValues>
            -2.0238022506237030e-01 2.5491884350776672e-01</leafValues></_></weakClassifiers></_>
    <!-- stage 11 -->
    <_>
      <maxWeakCount>20</maxWeakCount>
      <stageThreshold>-8.6976629495620728e-01</stageThreshold>
      <weakClassifiers>
        <_>
          <internalNodes>
            0 -1 209 -1.5046621672809124e-02</internalNodes>
          <leafValues>
            1.3824884593486786e-01 -3.4334763884544373e-01</leafValues></_>
        <_>
          <internalNodes>
            0 -1 187 -2.6841962244361639e-04</internalNodes>
          <leafValues>
            -2.7537500858306885e-01 1.8008877336978912e-01</leafValues></_>
        <_>
          <internalNodes>
            0 -1 207 -4.4701350852847099e-03</internalNodes>
          <leafValues>
            -6.6945087909698486e-01 7.3264181613922119e-02</leafValues></_>
        <_>
          <internalNodes>
            0 -1 31 -6.5508047118782997e-03</internalNodes>
          <leafValues>
            6.9162392616271973e-01 -6.5260186791419983e-02</leafValues></_>
        <_>
          <internalNodes>
            0 -1 135 -1.1706051230430603e-01</internalNodes>
          <leafValues>
            7.3005282878875732e-01 -7.9808495938777924e-02</leafValues></_>
        <_>
          <internalNodes>
            0 -1 316 -7.3639661073684692e-02</internalNodes>
          <leafValues>
            6.5719860792160034e-01 -7.1669839322566986e-02</leafValues></_>
        <_>
          <internalNodes>
            0 -1 204 1.2506917119026184e-02</internalNodes>
          <leafValues>
            8.1653885543346405e-02 -6.7677378654479980e-01</leafValues></_>
        <_>
          <internalNodes>
            0 -1 293 -1.2542099691927433e-02</internalNodes>
          <leafValues>
            3.6363926529884338e-01 -1.5214589238166809e-01</leafValues></_>
        <_>
          <internalNodes>
            0 -1 60 -5.6683659553527832e-02</internalNodes>
          <leafValues>
            -8.3539384603500366e-01 1.0740438848733902e-01</leafValues></_>
        <_>
          <internalNodes>
            0 -1 34 -6.9155097007751465e-02</internalNodes>
          <leafValues>
            2.9790064692497253e-01 -1.8321983516216278e-01</leafValues></_>
        <_>
          <internalNodes>
            0 -1 280 -4.9458928406238556e-03</internalNodes>
          <leafValues>
            4.2053952813148499e-01 -1.1685302853584290e-01</leafValues></_>
        <_>
          <internalNodes>
            0 -1 172 1.1890880996361375e-03</internalNodes>
          <leafValues>
            -2.0452217757701874e-01 2.4490086734294891e-01</leafValues></_>
        <_>
          <internalNodes>
            0 -1 166 8.6648687720298767e-02</internalNodes>
          <leafValues>
            -7.5497217476367950e-02 5.6159532070159912e-01</leafValues></_>
        <_>
          <internalNodes>
            0 -1 260 -3.1366087496280670e-02</internalNodes>
          <leafValues>
            7.7026557922363281e-01 -6.1390604823827744e-02</leafValues></_>
        <_>
          <internalNodes>
            0 -1 117 3.0311267822980881e-02</internalNodes>
          <leafValues>
            -9.1525547206401825e-02 4.9590435624122620e-01</leafValues></_>
        <_>
          <internalNodes>
            0 -1 17 -4.3440931476652622e-03</internalNodes>
          <leafValues>
            -4.8046419024467468e-01 1.0550380498170853e-01</leafValues></_>
        <_>
          <internalNodes>
            0 -1 0 3.3122889697551727e-02</internalNodes>
          <leafValues>
            -5.9502780437469482e-02 8.2799607515335083e-01</leafValues></_>
        <_>
          <internalNodes>
            0 -1 286 -6.1671817675232887e-03</internalNodes>
          <leafValues>
            6.2473833560943604e-01 -6.0921151190996170e-02</leafValues></_>
        <_>
          <internalNodes>
            0 -1 168 3.2158375252038240e-03</internalNodes>
          <leafValues>
            9.9684543907642365e-02 -5.0549536943435669e-01</leafValues></_>
        <_>
          <internalNodes>
            0 -1 325 5.8852266520261765e-03</internalNodes>
          <leafValues>
            -1.3333028554916382e-01 4.0099436044692993e-01</leafValues></_></weakClassifiers></_>
    <!-- stage 12 -->
    <_>
      <maxWeakCount>22</maxWeakCount>
      <stageThreshold>-7.8931802511215210e-01</stageThreshold>
      <weakClassifiers>
        <_>
          <internalNodes>
            0 -1 223 -4.4356305152177811e-03</internalNodes>
          <leafValues>
            3.2240438461303711e-01 -2.2175732254981995e-01</leafValues></_>
        <_>
          <internalNodes>
            0 -1 157 2.6446327567100525e-02</internalNodes>
          <leafValues>
            9.0077199041843414e-02 -5.2497273683547974e-01</leafValues></_>
        <_>
          <internalNodes>
            0 -1 231 -7.0783924311399460e-03</internalNodes>
          <leafValues>
            2.8068780899047852e-01 -1.7706820368766785e-01</leafValues></_>
        <_>
          <internalNodes>
            0 -1 290 1.2081438675522804e-02</internalNodes>
          <leafValues>
            -1.6545383632183075e-01 6.3250273466110229e-01</leafValues></_>
        <_>
          <internalNodes>
            0 -1 222 -1.1676019430160522e-01</internalNodes>
          <leafValues>
            -9.1702431440353394e-01 7.5798183679580688e-02</leafValues></_>
        <_>
          <internalNodes>
            0 -1 128 -4.0725119411945343e-02</internalNodes>
          <leafValues>
            -8.0370503664016724e-01 5.8385893702507019e-02</leafValues></_>
        <_>
          <internalNodes>
            0 -1 44 3.2765880227088928e-02</internalNodes>
          <leafValues>
            -1.0026818513870239e-01 4.5602491497993469e-01</leafValues></_>
        <_>
          <internalNodes>
            0 -1 118 1.5591016411781311e-01</internalNodes>
          <leafValues>
            6.3609704375267029e-02 -8.0740553140640259e-01</leafValues></_>
        <_>
          <internalNodes>
            0 -1 29 -7.5932472944259644e-02</internalNodes>
          <leafValues>
            5.5916750431060791e-01 -1.0646268725395203e-01</leafValues></_>
        <_>
          <internalNodes>
            0 -1 13 -7.2945468127727509e-03</internalNodes>
          <leafValues>
            5.0697165727615356e-01 -1.0263366997241974e-01</leafValues></_>
        <_>
          <internalNodes>
            0 -1 224 8.6968559771776199e-03</internalNodes>
          <leafValues>
            -1.4874637126922607e-01 3.1544613838195801e-01</leafValues></_>
        <_>
          <internalNodes>
            0 -1 200 -6.2396928668022156e-02</internalNodes>
          <leafValues>
            -7.3241645097732544e-01 8.9006446301937103e-02</leafValues></_>
        <_>
          <internalNodes>
            0 -1 52 -1.8738154321908951e-03</internalNodes>
          <leafValues>
            2.2723191976547241e-01 -2.1625180542469025e-01</leafValues></_>
        <_>
          <internalNodes>
            0 -1 324 1.7483681440353394e-02</internalNodes>
          <leafValues>
            7.1020632982254028e-02 -7.2596669197082520e-01</leafValues></_>
        <_>
          <internalNodes>
            0 -1 307 -3.0739679932594299e-02</internalNodes>
          <leafValues>
            -7.6079946756362915e-01 4.6038910746574402e-02</leafValues></_>
        <_>
          <internalNodes>
            0 -1 161 4.9503268674015999e-03</internalNodes>
          <leafValues>
            -1.1296410113573074e-01 4.8835703730583191e-01</leafValues></_>
        <_>
          <internalNodes>
            0 -1 253 4.2386925779283047e-03</internalNodes>
          <leafValues>
            -1.1103605479001999e-01 3.9677259325981140e-01</leafValues></_>
        <_>
          <internalNodes>
            0 -1 95 -1.2711018323898315e-02</internalNodes>
          <leafValues>
            2.8644797205924988e-01 -1.6503742337226868e-01</leafValues></_>
        <_>
          <internalNodes>
            0 -1 174 2.2965215146541595e-02</internalNodes>
          <leafValues>
            -1.4064621925354004e-01 4.8023438453674316e-01</leafValues></_>
        <_>
          <internalNodes>
            0 -1 167 -4.0386412292718887e-02</internalNodes>
          <leafValues>
            -8.2538419961929321e-01 6.7208416759967804e-02</leafValues></_>
        <_>
          <internalNodes>
            0 -1 48 -9.5473378896713257e-03</internalNodes>
          <leafValues>
            4.6026933193206787e-01 -1.1384375393390656e-01</leafValues></_>
        <_>
          <internalNodes>
            0 -1 233 2.6951283216476440e-02</internalNodes>
          <leafValues>
            8.0220840871334076e-02 -7.2687995433807373e-01</leafValues></_></weakClassifiers></_>
    <!-- stage 13 -->
    <_>
      <maxWeakCount>23</maxWeakCount>
      <stageThreshold>-8.0820375680923462e-01</stageThreshold>
      <weakClassifiers>
        <_>
          <internalNodes>
            0 -1 195 1.9479600712656975e-02</internalNodes>
          <leafValues>
            -1.6706444323062897e-01 6.4516127109527588e-01</leafValues></_>
        <_>
          <internalNodes>
            0 -1 305 -6.1989421956241131e-03</internalNodes>
          <leafValues>
            4.2182573676109314e-01 -1.2501272559165955e-01</leafValues></_>
        <_>
          <internalNodes>
            0 -1 326 6.1689815483987331e-03</internalNodes>
          <leafValues>
            -1.3477855920791626e-01 3.0952346324920654e-01</leafValues></_>
        <_>
          <internalNodes>
            0 -1 86 -2.8576184064149857e-02</internalNodes>
          <leafValues>
            8.0460900068283081e-01 -5.1934309303760529e-02</leafValues></_>
        <_>
          <internalNodes>
            0 -1 94 -6.0052527114748955e-03</internalNodes>
          <leafValues>
            4.1194516420364380e-01 -1.1474814265966415e-01</leafValues></_>
        <_>
          <internalNodes>
            0 -1 122 1.5480699948966503e-03</internalNodes>
          <leafValues>
            -1.5822684764862061e-01 2.9043394327163696e-01</leafValues></_>
        <_>
          <internalNodes>
            0 -1 85 1.2847379781305790e-02</internalNodes>
          <leafValues>
            -6.9174781441688538e-02 5.1554220914840698e-01</leafValues></_>
        <_>
          <internalNodes>
            0 -1 192 -1.1260409373790026e-03</internalNodes>
          <leafValues>
            1.9836524128913879e-01 -2.2669596970081329e-01</leafValues></_>
        <_>
          <internalNodes>
            0 -1 10 -1.4310857653617859e-01</internalNodes>
          <leafValues>
            -8.0180490016937256e-01 6.9315642118453979e-02</leafValues></_>
        <_>
          <internalNodes>
            0 -1 328 1.0196229442954063e-02</internalNodes>
          <leafValues>
            -9.9817112088203430e-02 5.0277280807495117e-01</leafValues></_>
        <_>
          <internalNodes>
            0 -1 133 5.0339475274085999e-02</internalNodes>
          <leafValues>
            6.6269345581531525e-02 -7.6047384738922119e-01</leafValues></_>
        <_>
          <internalNodes>
            0 -1 106 -1.1014230549335480e-02</internalNodes>
          <leafValues>
            2.8998860716819763e-01 -1.5985043346881866e-01</leafValues></_>
        <_>
          <internalNodes>
            0 -1 181 3.8072347640991211e-02</internalNodes>
          <leafValues>
            6.1494961380958557e-02 -7.4969708919525146e-01</leafValues></_>
        <_>
          <internalNodes>
            0 -1 268 -7.3388135060667992e-03</internalNodes>
          <leafValues>
            3.1115579605102539e-01 -1.4005669951438904e-01</leafValues></_>
        <_>
          <internalNodes>
            0 -1 228 3.8756035268306732e-02</internalNodes>
          <leafValues>
            9.1937646269798279e-02 -6.8077719211578369e-01</leafValues></_>
        <_>
          <internalNodes>
            0 -1 302 -4.9971370026469231e-03</internalNodes>
          <leafValues>
            5.1056104898452759e-01 -1.2460215389728546e-01</leafValues></_>
        <_>
          <internalNodes>
            0 -1 321 5.5514499545097351e-03</internalNodes>
          <leafValues>
            -7.5694948434829712e-02 5.0331205129623413e-01</leafValues></_>
        <_>
          <internalNodes>
            0 -1 12 -1.1838545091450214e-02</internalNodes>
          <leafValues>
            -5.5179673433303833e-01 1.0671065002679825e-01</leafValues></_>
        <_>
          <internalNodes>
            0 -1 162 6.1145871877670288e-03</internalNodes>
          <leafValues>
            -1.5655557811260223e-01 3.0967554450035095e-01</leafValues></_>
        <_>
          <internalNodes>
            0 -1 250 5.2333336323499680e-02</internalNodes>
          <leafValues>
            -5.4565489292144775e-02 6.6363096237182617e-01</leafValues></_>
        <_>
          <internalNodes>
            0 -1 59 -2.4932531639933586e-02</internalNodes>
          <leafValues>
            -6.4490902423858643e-01 7.3263831436634064e-02</leafValues></_>
        <_>
          <internalNodes>
            0 -1 155 1.9518727436661720e-02</internalNodes>
          <leafValues>
            -7.5099237263202667e-02 9.3872839212417603e-01</leafValues></_>
        <_>
          <internalNodes>
            0 -1 26 -1.4511751011013985e-02</internalNodes>
          <leafValues>
            3.2463619112968445e-01 -1.2593270838260651e-01</leafValues></_></weakClassifiers></_>
    <!-- stage 14 -->
    <_>
      <maxWeakCount>25</maxWeakCount>
      <stageThreshold>-8.1570369005203247e-01</stageThreshold>
      <weakClassifiers>
        <_>
          <internalNodes>
            0 -1 297 2.8520788997411728e-02</internalNodes>
          <leafValues>
            -2.0266667008399963e-01 3.4666666388511658e-01</leafValues></_>
        <_>
          <internalNodes>
            0 -1 156 2.2353019565343857e-02</internalNodes>
          <leafValues>
            4.8467937856912613e-02 -8.2043224573135376e-01</leafValues></_>
        <_>
          <internalNodes>
            0 -1 160 7.8394845128059387e-02</internalNodes>
          <leafValues>
            6.0733269900083542e-02 -8.6358487606048584e-01</leafValues></_>
        <_>
          <internalNodes>
            0 -1 266 4.8735253512859344e-03</internalNodes>
          <leafValues>
            -7.2083190083503723e-02 5.7473641633987427e-01</leafValues></_>
        <_>
          <internalNodes>
            0 -1 310 -8.5364077240228653e-03</internalNodes>
          <leafValues>
            7.1782451868057251e-01 -6.0429848730564117e-02</leafValues></_>
        <_>
          <internalNodes>
            0 -1 309 1.3004739768803120e-02</internalNodes>
          <leafValues>
            -7.7184878289699554e-02 5.9785491228103638e-01</leafValues></_>
        <_>
          <internalNodes>
            0 -1 312 -1.1888511944562197e-03</internalNodes>
          <leafValues>
            -2.7953839302062988e-01 1.6581840813159943e-01</leafValues></_>
        <_>
          <internalNodes>
            0 -1 296 1.0933032259345055e-02</internalNodes>
          <leafValues>
            -8.1329062581062317e-02 5.2896904945373535e-01</leafValues></_>
        <_>
          <internalNodes>
            0 -1 80 -1.0791356861591339e-01</internalNodes>
          <leafValues>
            -6.4003026485443115e-01 7.2172038257122040e-02</leafValues></_>
        <_>
          <internalNodes>
            0 -1 111 -3.0787303112447262e-03</internalNodes>
          <leafValues>
            2.4114473164081573e-01 -2.0158782601356506e-01</leafValues></_>
        <_>
          <internalNodes>
            0 -1 58 9.6232378855347633e-03</internalNodes>
          <leafValues>
            -1.4489096403121948e-01 3.2303938269615173e-01</leafValues></_>
        <_>
          <internalNodes>
            0 -1 267 1.8337126821279526e-02</internalNodes>
          <leafValues>
            -1.8221309781074524e-01 2.8130379319190979e-01</leafValues></_>
        <_>
          <internalNodes>
            0 -1 87 -4.8585571348667145e-02</internalNodes>
          <leafValues>
            -7.2145074605941772e-01 8.5163019597530365e-02</leafValues></_>
        <_>
          <internalNodes>
            0 -1 208 1.7426927806809545e-03</internalNodes>
          <leafValues>
            9.2868499457836151e-02 -3.8307672739028931e-01</leafValues></_>
        <_>
          <internalNodes>
            0 -1 226 -2.0192798227071762e-02</internalNodes>
          <leafValues>
            -4.4300320744514465e-01 1.3586676120758057e-01</leafValues></_>
        <_>
          <internalNodes>
            0 -1 57 -9.2542111873626709e-02</internalNodes>
          <leafValues>
            -8.6715447902679443e-01 4.8765216022729874e-02</leafValues></_>
        <_>
          <internalNodes>
            0 -1 74 2.7503570541739464e-02</internalNodes>
          <leafValues>
            -9.7643248736858368e-02 6.3148653507232666e-01</leafValues></_>
        <_>
          <internalNodes>
            0 -1 138 -3.4741781651973724e-02</internalNodes>
          <leafValues>
            4.8230698704719543e-01 -9.2033304274082184e-02</leafValues></_>
        <_>
          <internalNodes>
            0 -1 211 1.7905417829751968e-02</internalNodes>
          <leafValues>
            -6.0258086770772934e-02 6.9901257753372192e-01</leafValues></_>
        <_>
          <internalNodes>
            0 -1 234 -1.8317483365535736e-02</internalNodes>
          <leafValues>
            6.1580008268356323e-01 -7.1428351104259491e-02</leafValues></_>
        <_>
          <internalNodes>
            0 -1 154 -6.2623165547847748e-02</internalNodes>
          <leafValues>
            -6.4658391475677490e-01 7.0131301879882812e-02</leafValues></_>
        <_>
          <internalNodes>
            0 -1 120 -1.0369444638490677e-01</internalNodes>
          <leafValues>
            4.2534774541854858e-01 -1.1445569992065430e-01</leafValues></_>
        <_>
          <internalNodes>
            0 -1 331 -1.5304825268685818e-02</internalNodes>
          <leafValues>
            -5.2015888690948486e-01 8.9798003435134888e-02</leafValues></_>
        <_>
          <internalNodes>
            0 -1 97 4.3052151799201965e-02</internalNodes>
          <leafValues>
            5.5190928280353546e-02 -8.2580041885375977e-01</leafValues></_>
        <_>
          <internalNodes>
            0 -1 313 -1.3800130784511566e-01</internalNodes>
          <leafValues>
            -6.1598706245422363e-01 6.1777770519256592e-02</leafValues></_></weakClassifiers></_>
    <!-- stage 15 -->
    <_>
      <maxWeakCount>22</maxWeakCount>
      <stageThreshold>-7.8419929742813110e-01</stageThreshold>
      <weakClassifiers>
        <_>
          <internalNodes>
            0 -1 234 -1.7061104997992516e-02</internalNodes>
          <leafValues>
            5.1578944921493530e-01 -1.8509316444396973e-01</leafValues></_>
        <_>
          <internalNodes>
            0 -1 41 7.9096317291259766e-02</internalNodes>
          <leafValues>
            2.9225792735815048e-02 -6.6374754905700684e-01</leafValues></_>
        <_>
          <internalNodes>
            0 -1 167 2.2160466760396957e-02</internalNodes>
          <leafValues>
            1.8528759479522705e-01 -4.0549057722091675e-01</leafValues></_>
        <_>
          <internalNodes>
            0 -1 32 -3.5520344972610474e-03</internalNodes>
          <leafValues>
            1.9642443954944611e-01 -2.4962605535984039e-01</leafValues></_>
        <_>
          <internalNodes>
            0 -1 39 -2.7729498688131571e-03</internalNodes>
          <leafValues>
            -3.4120789170265198e-01 1.7026305198669434e-01</leafValues></_>
        <_>
          <internalNodes>
            0 -1 306 -3.3853933215141296e-02</internalNodes>
          <leafValues>
            -8.3054453134536743e-01 6.0624334961175919e-02</leafValues></_>
        <_>
          <internalNodes>
            0 -1 103 -1.0229231789708138e-02</internalNodes>
          <leafValues>
            4.2119210958480835e-01 -1.3473527133464813e-01</leafValues></_>
        <_>
          <internalNodes>
            0 -1 125 -1.3002546131610870e-01</internalNodes>
          <leafValues>
            5.6990170478820801e-01 -1.0496749728918076e-01</leafValues></_>
        <_>
          <internalNodes>
            0 -1 278 1.2142013758420944e-02</internalNodes>
          <leafValues>
            -7.8452281653881073e-02 4.5018610358238220e-01</leafValues></_>
        <_>
          <internalNodes>
            0 -1 90 -4.0778949856758118e-02</internalNodes>
          <leafValues>
            3.8738739490509033e-01 -1.1770405620336533e-01</leafValues></_>
        <_>
          <internalNodes>
            0 -1 96 -3.0296301469206810e-02</internalNodes>
          <leafValues>
            -3.3535993099212646e-01 1.4899311959743500e-01</leafValues></_>
        <_>
          <internalNodes>
            0 -1 314 2.0876470953226089e-02</internalNodes>
          <leafValues>
            -6.8356551229953766e-02 6.0329246520996094e-01</leafValues></_>
        <_>
          <internalNodes>
            0 -1 131 2.1638546884059906e-01</internalNodes>
          <leafValues>
            6.6832534968852997e-02 -8.5985606908798218e-01</leafValues></_>
        <_>
          <internalNodes>
            0 -1 203 -1.2000222690403461e-02</internalNodes>
          <leafValues>
            5.1831376552581787e-01 -1.0225711017847061e-01</leafValues></_>
        <_>
          <internalNodes>
            0 -1 121 9.8230823874473572e-02</internalNodes>
          <leafValues>
            7.6376274228096008e-02 -7.8119939565658569e-01</leafValues></_>
        <_>
          <internalNodes>
            0 -1 299 -3.0175684951245785e-03</internalNodes>
          <leafValues>
            2.4612197279930115e-01 -2.0849162340164185e-01</leafValues></_>
        <_>
          <internalNodes>
            0 -1 83 -5.1696039736270905e-03</internalNodes>
          <leafValues>
            2.8148823976516724e-01 -1.6429468989372253e-01</leafValues></_>
        <_>
          <internalNodes>
            0 -1 64 1.1961109936237335e-02</internalNodes>
          <leafValues>
            -1.1764807254076004e-01 4.8920226097106934e-01</leafValues></_>
        <_>
          <internalNodes>
            0 -1 283 5.3501196205615997e-02</internalNodes>
          <leafValues>
            -8.4116041660308838e-02 5.1179862022399902e-01</leafValues></_>
        <_>
          <internalNodes>
            0 -1 43 -6.4267247915267944e-02</internalNodes>
          <leafValues>
            4.9722197651863098e-01 -9.5197871327400208e-02</leafValues></_>
        <_>
          <internalNodes>
            0 -1 15 1.6068153083324432e-02</internalNodes>
          <leafValues>
            1.1397500336170197e-01 -4.5762702822685242e-01</leafValues></_>
        <_>
          <internalNodes>
            0 -1 247 1.2111335992813110e-02</internalNodes>
          <leafValues>
            -1.4443516731262207e-01 3.9620402455329895e-01</leafValues></_></weakClassifiers></_>
    <!-- stage 16 -->
    <_>
      <maxWeakCount>23</maxWeakCount>
      <stageThreshold>-7.0835161209106445e-01</stageThreshold>
      <weakClassifiers>
        <_>
          <internalNodes>
            0 -1 310 6.9857751950621605e-03</internalNodes>
          <leafValues>
            -1.8686868250370026e-01 4.4444444775581360e-01</leafValues></_>
        <_>
          <internalNodes>
            0 -1 282 3.4329958260059357e-02</internalNodes>
          <leafValues>
            5.8688446879386902e-02 -6.7108523845672607e-01</leafValues></_>
        <_>
          <internalNodes>
            0 -1 7 1.1854783445596695e-01</internalNodes>
          <leafValues>
            6.5832152962684631e-02 -8.2514905929565430e-01</leafValues></_>
        <_>
          <internalNodes>
            0 -1 269 -3.0779231339693069e-02</internalNodes>
          <leafValues>
            -6.8975412845611572e-01 6.4087308943271637e-02</leafValues></_>
        <_>
          <internalNodes>
            0 -1 216 3.0968240462243557e-03</internalNodes>
          <leafValues>
            -1.8623529374599457e-01 2.2514986991882324e-01</leafValues></_>
        <_>
          <internalNodes>
            0 -1 76 5.1193763501942158e-03</internalNodes>
          <leafValues>
            -1.1925708502531052e-01 3.5407015681266785e-01</leafValues></_>
        <_>
          <internalNodes>
            0 -1 152 -1.2082297354936600e-02</internalNodes>
          <leafValues>
            5.2267211675643921e-01 -7.9282194375991821e-02</leafValues></_>
        <_>
          <internalNodes>
            0 -1 256 2.8245456516742706e-02</internalNodes>
          <leafValues>
            4.5063242316246033e-02 -8.2656061649322510e-01</leafValues></_>
        <_>
          <internalNodes>
            0 -1 148 5.7010087184607983e-03</internalNodes>
          <leafValues>
            -2.1304188668727875e-01 2.2765211760997772e-01</leafValues></_>
        <_>
          <internalNodes>
            0 -1 62 -2.2681044414639473e-02</internalNodes>
          <leafValues>
            6.5114963054656982e-01 -8.1741154193878174e-02</leafValues></_>
        <_>
          <internalNodes>
            0 -1 232 -1.1032799258828163e-02</internalNodes>
          <leafValues>
            3.5453525185585022e-01 -9.6893809735774994e-02</leafValues></_>
        <_>
          <internalNodes>
            0 -1 229 -9.4060532748699188e-02</internalNodes>
          <leafValues>
            -8.7359398603439331e-01 5.8929871767759323e-02</leafValues></_>
        <_>
          <internalNodes>
            0 -1 93 6.4830156043171883e-03</internalNodes>
          <leafValues>
            -1.2237307429313660e-01 3.9356616139411926e-01</leafValues></_>
        <_>
          <internalNodes>
            0 -1 320 1.4148317277431488e-02</internalNodes>
          <leafValues>
            -1.3451568782329559e-01 2.9828396439552307e-01</leafValues></_>
        <_>
          <internalNodes>
            0 -1 173 3.2138578593730927e-02</internalNodes>
          <leafValues>
            -9.3335047364234924e-02 5.8635640144348145e-01</leafValues></_>
        <_>
          <internalNodes>
            0 -1 248 -8.2824677228927612e-03</internalNodes>
          <leafValues>
            3.6731159687042236e-01 -1.0393928736448288e-01</leafValues></_>
        <_>
          <internalNodes>
            0 -1 188 -8.6624324321746826e-03</internalNodes>
          <leafValues>
            -3.8969331979751587e-01 1.1361294239759445e-01</leafValues></_>
        <_>
          <internalNodes>
            0 -1 149 2.0452560484409332e-01</internalNodes>
          <leafValues>
            -7.6106369495391846e-02 6.4597630500793457e-01</leafValues></_>
        <_>
          <internalNodes>
            0 -1 164 -1.2356260791420937e-02</internalNodes>
          <leafValues>
            4.2337381839752197e-01 -1.1152302473783493e-01</leafValues></_>
        <_>
          <internalNodes>
            0 -1 61 8.8216155767440796e-02</internalNodes>
          <leafValues>
            5.5822949856519699e-02 -8.4183812141418457e-01</leafValues></_>
        <_>
          <internalNodes>
            0 -1 2 -1.0471166111528873e-02</internalNodes>
          <leafValues>
            -6.7170631885528564e-01 5.3129654377698898e-02</leafValues></_>
        <_>
          <internalNodes>
            0 -1 189 1.6988538205623627e-02</internalNodes>
          <leafValues>
            9.3254908919334412e-02 -4.7448989748954773e-01</leafValues></_>
        <_>
          <internalNodes>
            0 -1 323 -4.1222814470529556e-03</internalNodes>
          <leafValues>
            2.9147842526435852e-01 -1.5235449373722076e-01</leafValues></_></weakClassifiers></_>
    <!-- stage 17 -->
    <_>
      <maxWeakCount>21</maxWeakCount>
      <stageThreshold>-8.1766867637634277e-01</stageThreshold>
      <weakClassifiers>
        <_>
          <internalNodes>
            0 -1 1 -7.2698313742876053e-03</internalNodes>
          <leafValues>
            -4.5185184478759766e-01 3.4920636564493179e-02</leafValues></_>
        <_>
          <internalNodes>
            0 -1 175 -5.6849360466003418e-02</internalNodes>
          <leafValues>
            4.4106358289718628e-01 -1.0648150742053986e-01</leafValues></_>
        <_>
          <internalNodes>
            0 -1 35 -1.4193642884492874e-02</internalNodes>
          <leafValues>
            3.8938036561012268e-01 -1.0448312014341354e-01</leafValues></_>
        <_>
          <internalNodes>
            0 -1 92 -5.1664048805832863e-03</internalNodes>
          <leafValues>
            4.7116002440452576e-01 -1.0206978023052216e-01</leafValues></_>
        <_>
          <internalNodes>
            0 -1 197 -3.0171198770403862e-02</internalNodes>
          <leafValues>
            -3.9982575178146362e-01 1.0875113308429718e-01</leafValues></_>
        <_>
          <internalNodes>
            0 -1 16 -3.1537413597106934e-01</internalNodes>
          <leafValues>
            -6.2123292684555054e-01 7.6623693108558655e-02</leafValues></_>
        <_>
          <internalNodes>
            0 -1 230 4.9668545834720135e-03</internalNodes>
          <leafValues>
            7.6552145183086395e-02 -6.5815752744674683e-01</leafValues></_>
        <_>
          <internalNodes>
            0 -1 205 -6.0004782862961292e-03</internalNodes>
          <leafValues>
            4.7142338752746582e-01 -1.1157439649105072e-01</leafValues></_>
        <_>
          <internalNodes>
            0 -1 315 -1.1221991851925850e-02</internalNodes>
          <leafValues>
            3.5861355066299438e-01 -1.5528890490531921e-01</leafValues></_>
        <_>
          <internalNodes>
            0 -1 132 -4.1967324912548065e-02</internalNodes>
          <leafValues>
            -6.9866359233856201e-01 1.1888806521892548e-01</leafValues></_>
        <_>
          <internalNodes>
            0 -1 127 -1.8503214418888092e-01</internalNodes>
          <leafValues>
            9.5448994636535645e-01 -9.9127441644668579e-02</leafValues></_>
        <_>
          <internalNodes>
            0 -1 199 -2.0546581596136093e-02</internalNodes>
          <leafValues>
            4.0080794692039490e-01 -1.2992522120475769e-01</leafValues></_>
        <_>
          <internalNodes>
            0 -1 251 6.4495531842112541e-03</internalNodes>
          <leafValues>
            -2.5492742657661438e-01 2.5309693813323975e-01</leafValues></_>
        <_>
          <internalNodes>
            0 -1 5 -1.0460793972015381e-01</internalNodes>
          <leafValues>
            7.2053599357604980e-01 -3.8808181881904602e-02</leafValues></_>
        <_>
          <internalNodes>
            0 -1 239 2.0225454121828079e-02</internalNodes>
          <leafValues>
            1.0467184334993362e-01 -4.6475538611412048e-01</leafValues></_>
        <_>
          <internalNodes>
            0 -1 150 5.7985514402389526e-02</internalNodes>
          <leafValues>
            9.1187313199043274e-02 -5.2475476264953613e-01</leafValues></_>
        <_>
          <internalNodes>
            0 -1 110 -1.1986894533038139e-02</internalNodes>
          <leafValues>
            5.7106655836105347e-01 -1.0670557618141174e-01</leafValues></_>
        <_>
          <internalNodes>
            0 -1 304 5.8359026908874512e-02</internalNodes>
          <leafValues>
            6.7304193973541260e-02 -8.1557154655456543e-01</leafValues></_>
        <_>
          <internalNodes>
            0 -1 287 -2.5633448734879494e-02</internalNodes>
          <leafValues>
            4.1760772466659546e-01 -1.2271683663129807e-01</leafValues></_>
        <_>
          <internalNodes>
            0 -1 301 -1.3928616419434547e-02</internalNodes>
          <leafValues>
            5.5993098020553589e-01 -8.8259130716323853e-02</leafValues></_>
        <_>
          <internalNodes>
            0 -1 130 -6.6063925623893738e-02</internalNodes>
          <leafValues>
            -7.0179492235183716e-01 7.4111387133598328e-02</leafValues></_></weakClassifiers></_>
    <!-- stage 18 -->
    <_>
      <maxWeakCount>19</maxWeakCount>
      <stageThreshold>-8.4654521942138672e-01</stageThreshold>
      <weakClassifiers>
        <_>
          <internalNodes>
            0 -1 254 1.0816801339387894e-02</internalNodes>
          <leafValues>
            -1.9649562239646912e-01 5.6435644626617432e-01</leafValues></_>
        <_>
          <internalNodes>
            0 -1 49 3.4654594957828522e-02</internalNodes>
          <leafValues>
            1.9492180645465851e-01 -2.9362419247627258e-01</leafValues></_>
        <_>
          <internalNodes>
            0 -1 319 -1.1352984234690666e-02</internalNodes>
          <leafValues>
            7.3408973217010498e-01 -1.0925881564617157e-01</leafValues></_>
        <_>
          <internalNodes>
            0 -1 289 1.5986993908882141e-02</internalNodes>
          <leafValues>
            -1.9098664820194244e-01 3.0500513315200806e-01</leafValues></_>
        <_>
          <internalNodes>
            0 -1 71 -1.3481953740119934e-01</internalNodes>
          <leafValues>
            6.7370307445526123e-01 -7.8538924455642700e-02</leafValues></_>
        <_>
          <internalNodes>
            0 -1 254 -1.1126993224024773e-02</internalNodes>
          <leafValues>
            5.2957850694656372e-01 -1.0150987654924393e-01</leafValues></_>
        <_>
          <internalNodes>
            0 -1 279 -4.6931621618568897e-03</internalNodes>
          <leafValues>
            5.9920495748519897e-01 -6.6593408584594727e-02</leafValues></_>
        <_>
          <internalNodes>
            0 -1 238 4.1599795222282410e-02</internalNodes>
          <leafValues>
            1.0902541130781174e-01 -5.5942356586456299e-01</leafValues></_>
        <_>
          <internalNodes>
            0 -1 213 6.8458328023552895e-03</internalNodes>
          <leafValues>
            -2.0782864093780518e-01 3.5475134849548340e-01</leafValues></_>
        <_>
          <internalNodes>
            0 -1 171 1.8901422154158354e-03</internalNodes>
          <leafValues>
            1.6560758650302887e-01 -3.7712478637695312e-01</leafValues></_>
        <_>
          <internalNodes>
            0 -1 196 2.0640946924686432e-02</internalNodes>
          <leafValues>
            -7.0688448846340179e-02 7.3475390672683716e-01</leafValues></_>
        <_>
          <internalNodes>
            0 -1 169 2.0594301167875528e-03</internalNodes>
          <leafValues>
            1.7832703888416290e-01 -3.4546208381652832e-01</leafValues></_>
        <_>
          <internalNodes>
            0 -1 270 -6.8693706998601556e-04</internalNodes>
          <leafValues>
            3.9910081028938293e-01 -1.6225628554821014e-01</leafValues></_>
        <_>
          <internalNodes>
            0 -1 75 -4.4441767036914825e-02</internalNodes>
          <leafValues>
            5.3397214412689209e-01 -1.6166670620441437e-01</leafValues></_>
        <_>
          <internalNodes>
            0 -1 212 5.3993813693523407e-02</internalNodes>
          <leafValues>
            1.0048043727874756e-01 -7.9924082756042480e-01</leafValues></_>
        <_>
          <internalNodes>
            0 -1 176 9.4760889187455177e-03</internalNodes>
          <leafValues>
            -1.4282138645648956e-01 5.3429836034774780e-01</leafValues></_>
        <_>
          <internalNodes>
            0 -1 244 -1.5609862748533487e-03</internalNodes>
          <leafValues>
            2.1835741400718689e-01 -3.2812532782554626e-01</leafValues></_>
        <_>
          <internalNodes>
            0 -1 198 3.4360387362539768e-03</internalNodes>
          <leafValues>
            -1.3702011108398438e-01 4.4275695085525513e-01</leafValues></_>
        <_>
          <internalNodes>
            0 -1 23 1.2750364840030670e-02</internalNodes>
          <leafValues>
            -1.5123236179351807e-01 4.6100130677223206e-01</leafValues></_></weakClassifiers></_>
    <!-- stage 19 -->
    <_>
      <maxWeakCount>17</maxWeakCount>
      <stageThreshold>-9.1477614641189575e-01</stageThreshold>
      <weakClassifiers>
        <_>
          <internalNodes>
            0 -1 261 3.8068920373916626e-02</internalNodes>
          <leafValues>
            -1.9854721426963806e-01 8.6486488580703735e-01</leafValues></_>
        <_>
          <internalNodes>
            0 -1 107 -1.1943696066737175e-02</internalNodes>
          <leafValues>
            5.0002557039260864e-01 -1.7645153403282166e-01</leafValues></_>
        <_>
          <internalNodes>
            0 -1 322 -6.6514937207102776e-03</internalNodes>
          <leafValues>
            4.1841316223144531e-01 -1.6627044975757599e-01</leafValues></_>
        <_>
          <internalNodes>
            0 -1 109 1.2973967194557190e-01</internalNodes>
          <leafValues>
            -7.2606004774570465e-02 9.2681580781936646e-01</leafValues></_>
        <_>
          <internalNodes>
            0 -1 105 2.7416625525802374e-03</internalNodes>
          <leafValues>
            -1.2351218611001968e-01 4.7562864422798157e-01</leafValues></_>
        <_>
          <internalNodes>
            0 -1 140 3.3635482192039490e-02</internalNodes>
          <leafValues>
            -9.6894107758998871e-02 7.9491335153579712e-01</leafValues></_>
        <_>
          <internalNodes>
            0 -1 54 -9.7695454955101013e-02</internalNodes>
          <leafValues>
            4.8329514265060425e-01 -1.4720988273620605e-01</leafValues></_>
        <_>
          <internalNodes>
            0 -1 18 8.1371575593948364e-02</internalNodes>
          <leafValues>
            -1.0210871696472168e-01 6.5511512756347656e-01</leafValues></_>
        <_>
          <internalNodes>
            0 -1 66 4.8783805221319199e-02</internalNodes>
          <leafValues>
            1.4486925303936005e-01 -6.1496603488922119e-01</leafValues></_>
        <_>
          <internalNodes>
            0 -1 271 -2.6353118009865284e-03</internalNodes>
          <leafValues>
            6.2482351064682007e-01 -1.4243681728839874e-01</leafValues></_>
        <_>
          <internalNodes>
            0 -1 295 9.7698550671339035e-03</internalNodes>
          <leafValues>
            -1.4723061025142670e-01 4.9486947059631348e-01</leafValues></_>
        <_>
          <internalNodes>
            0 -1 273 -2.3936301469802856e-02</internalNodes>
          <leafValues>
            1. -9.4755113124847412e-02</leafValues></_>
        <_>
          <internalNodes>
            0 -1 139 -9.2667415738105774e-03</internalNodes>
          <leafValues>
            7.4637186527252197e-01 -9.7187161445617676e-02</leafValues></_>
        <_>
          <internalNodes>
            0 -1 3 1.7212472856044769e-02</internalNodes>
          <leafValues>
            -1.4712078869342804e-01 5.3437268733978271e-01</leafValues></_>
        <_>
          <internalNodes>
            0 -1 51 1.3791002565994859e-03</internalNodes>
          <leafValues>
            -2.5465583801269531e-01 3.5514500737190247e-01</leafValues></_>
        <_>
          <internalNodes>
            0 -1 55 -8.2505993545055389e-02</internalNodes>
          <leafValues>
            -6.3501423597335815e-01 1.5078908205032349e-01</leafValues></_>
        <_>
          <internalNodes>
            0 -1 191 -3.5755818244069815e-03</internalNodes>
          <leafValues>
            -5.1347470283508301e-01 1.6002254188060760e-01</leafValues></_></weakClassifiers></_></stages>
  <features>
    <_>
      <rects>
        <_>
          0 0 2 7 -1.</_>
        <_>
          1 0 1 7 2.</_></rects>
      <tilted>0</tilted></_>
    <_>
      <rects>
        <_>
          0 0 2 4 -1.</_>
        <_>
          0 1 2 2 2.</_></rects>
      <tilted>0</tilted></_>
    <_>
      <rects>
        <_>
          0 1 2 2 -1.</_>
        <_>
          0 2 2 1 2.</_></rects>
      <tilted>0</tilted></_>
    <_>
      <rects>
        <_>
          0 2 2 6 -1.</_>
        <_>
          0 4 2 2 3.</_></rects>
      <tilted>0</tilted></_>
    <_>
      <rects>
        <_>
          0 3 3 4 -1.</_>
        <_>
          1 3 1 4 3.</_></rects>
      <tilted>0</tilted></_>
    <_>
      <rects>
        <_>
          0 3 16 3 -1.</_>
        <_>
          4 3 8 3 2.</_></rects>
      <tilted>0</tilted></_>
    <_>
      <rects>
        <_>
          0 3 16 6 -1.</_>
        <_>
          4 3 8 6 2.</_></rects>
      <tilted>0</tilted></_>
    <_>
      <rects>
        <_>
          0 3 16 2 -1.</_>
        <_>
          8 3 8 2 2.</_></rects>
      <tilted>0</tilted></_>
    <_>
      <rects>
        <_>
          0 4 12 2 -1.</_>
        <_>
          4 4 4 2 3.</_></rects>
      <tilted>0</tilted></_>
    <_>
      <rects>
        <_>
          0 5 24 1 -1.</_>
        <_>
          8 5 8 1 3.</_></rects>
      <tilted>0</tilted></_>
    <_>
      <rects>
        <_>
          0 6 15 4 -1.</_>
        <_>
          0 7 15 2 2.</_></rects>
      <tilted>0</tilted></_>
    <_>
      <rects>
        <_>
          0 6 17 2 -1.</_>
        <_>
          0 7 17 1 2.</_></rects>
      <tilted>0</tilted></_>
    <_>
      <rects>
        <_>
          0 8 3 2 -1.</_>
        <_>
          0 9 3 1 2.</_></rects>
      <tilted>0</tilted></_>
    <_>
      <rects>
        <_>
          1 0 2 4 -1.</_>
        <_>
          1 0 1 2 2.</_>
        <_>
          2 2 1 2 2.</_></rects>
      <tilted>0</tilted></_>
    <_>
      <rects>
        <_>
          1 0 2 2 -1.</_>
        <_>
          1 1 2 1 2.</_></rects>
      <tilted>0</tilted></_>
    <_>
      <rects>
        <_>
          1 0 9 1 -1.</_>
        <_>
          4 0 3 1 3.</_></rects>
      <tilted>0</tilted></_>
    <_>
      <rects>
        <_>
          1 0 24 10 -1.</_>
        <_>
          13 0 12 10 2.</_></rects>
      <tilted>0</tilted></_>
    <_>
      <rects>
        <_>
          1 2 1 2 -1.</_>
        <_>
          1 3 1 1 2.</_></rects>
      <tilted>0</tilted></_>
    <_>
      <rects>
        <_>
          1 2 20 4 -1.</_>
        <_>
          6 2 10 4 2.</_></rects>
      <tilted>0</tilted></_>
    <_>
      <rects>
        <_>
          1 3 6 2 -1.</_>
        <_>
          1 3 3 1 2.</_>
        <_>
          4 4 3 1 2.</_></rects>
      <tilted>0</tilted></_>
    <_>
      <rects>
        <_>
          1 4 9 6 -1.</_>
        <_>
          4 4 3 6 3.</_></rects>
      <tilted>0</tilted></_>
    <_>
      <rects>
        <_>
          1 5 4 2 -1.</_>
        <_>
          1 5 2 1 2.</_>
        <_>
          3 6 2 1 2.</_></rects>
      <tilted>0</tilted></_>
    <_>
      <rects>
        <_>
          1 5 21 3 -1.</_>
        <_>
          8 6 7 1 9.</_></rects>
      <tilted>0</tilted></_>
    <_>
      <rects>
        <_>
          1 6 6 1 -1.</_>
        <_>
          3 6 2 1 3.</_></rects>
      <tilted>0</tilted></_>
    <_>
      <rects>
        <_>
          1 6 6 2 -1.</_>
        <_>
          1 6 3 1 2.</_>
        <_>
          4 7 3 1 2.</_></rects>
      <tilted>0</tilted></_>
    <_>
      <rects>
        <_>
          1 7 12 1 -1.</_>
        <_>
          4 7 6 1 2.</_></rects>
      <tilted>0</tilted></_>
    <_>
      <rects>
        <_>
          2 0 4 10 -1.</_>
        <_>
          2 0 2 5 2.</_>
        <_>
          4 5 2 5 2.</_></rects>
      <tilted>0</tilted></_>
    <_>
      <rects>
        <_>
          2 0 16 8 -1.</_>
        <_>
          2 0 8 4 2.</_>
        <_>
          10 4 8 4 2.</_></rects>
      <tilted>0</tilted></_>
    <_>
      <rects>
        <_>
          2 0 20 4 -1.</_>
        <_>
          2 0 10 2 2.</_>
        <_>
          12 2 10 2 2.</_></rects>
      <tilted>0</tilted></_>
    <_>
      <rects>
        <_>
          2 1 18 4 -1.</_>
        <_>
          2 1 9 2 2.</_>
        <_>
          11 3 9 2 2.</_></rects>
      <tilted>0</tilted></_>
    <_>
      <rects>
        <_>
          2 2 16 8 -1.</_>
        <_>
          2 6 16 4 2.</_></rects>
      <tilted>0</tilted></_>
    <_>
      <rects>
        <_>
          2 3 2 2 -1.</_>
        <_>
          2 3 1 1 2.</_>
        <_>
          3 4 1 1 2.</_></rects>
      <tilted>0</tilted></_>
    <_>
      <rects>
        <_>
          2 4 3 4 -1.</_>
        <_>
          3 4 1 4 3.</_></rects>
      <tilted>0</tilted></_>
    <_>
      <rects>
        <_>
          2 4 12 2 -1.</_>
        <_>
          2 4 6 1 2.</_>
        <_>
          8 5 6 1 2.</_></rects>
      <tilted>0</tilted></_>
    <_>
      <rects>
        <_>
          2 4 18 4 -1.</_>
        <_>
          2 4 9 2 2.</_>
        <_>
          11 6 9 2 2.</_></rects>
      <tilted>0</tilted></_>
    <_>
      <rects>
        <_>
          2 5 6 2 -1.</_>
        <_>
          2 5 3 1 2.</_>
        <_>
          5 6 3 1 2.</_></rects>
      <tilted>0</tilted></_>
    <_>
      <rects>
        <_>
          2 6 10 1 -1.</_>
        <_>
          7 6 5 1 2.</_></rects>
      <tilted>0</tilted></_>
    <_>
      <rects>
        <_>
          2 7 6 1 -1.</_>
        <_>
          5 7 3 1 2.</_></rects>
      <tilted>0</tilted></_>
    <_>
      <rects>
        <_>
          2 8 15 1 -1.</_>
        <_>
          7 8 5 1 3.</_></rects>
      <tilted>0</tilted></_>
    <_>
      <rects>
        <_>
          3 0 1 2 -1.</_>
        <_>
          3 1 1 1 2.</_></rects>
      <tilted>0</tilted></_>
    <_>
      <rects>
        <_>
          3 0 9 6 -1.</_>
        <_>
          3 3 9 3 2.</_></rects>
      <tilted>0</tilted></_>
    <_>
      <rects>
        <_>
          3 0 16 4 -1.</_>
        <_>
          3 1 16 2 2.</_></rects>
      <tilted>0</tilted></_>
    <_>
      <rects>
        <_>
          3 1 4 2 -1.</_>
        <_>
          3 1 2 2 2.</_></rects>
      <tilted>1</tilted></_>
    <_>
      <rects>
        <_>
          3 1 4 6 -1.</_>
        <_>
          3 4 4 3 2.</_></rects>
      <tilted>0</tilted></_>
    <_>
      <rects>
        <_>
          3 1 16 2 -1.</_>
        <_>
          3 1 8 1 2.</_>
        <_>
          11 2 8 1 2.</_></rects>
      <tilted>0</tilted></_>
    <_>
      <rects>
        <_>
          3 1 20 6 -1.</_>
        <_>
          3 1 10 3 2.</_>
        <_>
          13 4 10 3 2.</_></rects>
      <tilted>0</tilted></_>
    <_>
      <rects>
        <_>
          3 2 4 3 -1.</_>
        <_>
          3 3 4 1 3.</_></rects>
      <tilted>0</tilted></_>
    <_>
      <rects>
        <_>
          3 2 22 8 -1.</_>
        <_>
          3 6 22 4 2.</_></rects>
      <tilted>0</tilted></_>
    <_>
      <rects>
        <_>
          3 3 1 3 -1.</_>
        <_>
          3 4 1 1 3.</_></rects>
      <tilted>0</tilted></_>
    <_>
      <rects>
        <_>
          3 3 18 4 -1.</_>
        <_>
          3 4 18 2 2.</_></rects>
      <tilted>0</tilted></_>
    <_>
      <rects>
        <_>
          3 5 10 2 -1.</_>
        <_>
          3 5 5 1 2.</_>
        <_>
          8 6 5 1 2.</_></rects>
      <tilted>0</tilted></_>
    <_>
      <rects>
        <_>
          3 6 1 4 -1.</_>
        <_>
          3 8 1 2 2.</_></rects>
      <tilted>0</tilted></_>
    <_>
      <rects>
        <_>
          3 6 2 2 -1.</_>
        <_>
          3 7 2 1 2.</_></rects>
      <tilted>0</tilted></_>
    <_>
      <rects>
        <_>
          3 6 6 2 -1.</_>
        <_>
          3 6 3 1 2.</_>
        <_>
          6 7 3 1 2.</_></rects>
      <tilted>0</tilted></_>
    <_>
      <rects>
        <_>
          3 7 12 3 -1.</_>
        <_>
          7 8 4 1 9.</_></rects>
      <tilted>0</tilted></_>
    <_>
      <rects>
        <_>
          3 7 18 1 -1.</_>
        <_>
          9 7 6 1 3.</_></rects>
      <tilted>0</tilted></_>
    <_>
      <rects>
        <_>
          3 7 21 1 -1.</_>
        <_>
          10 7 7 1 3.</_></rects>
      <tilted>0</tilted></_>
    <_>
      <rects>
        <_>
          3 9 22 1 -1.</_>
        <_>
          14 9 11 1 2.</_></rects>
      <tilted>0</tilted></_>
    <_>
      <rects>
        <_>
          4 0 2 4 -1.</_>
        <_>
          4 1 2 2 2.</_></rects>
      <tilted>0</tilted></_>
    <_>
      <rects>
        <_>
          4 0 4 4 -1.</_>
        <_>
          4 0 2 2 2.</_>
        <_>
          6 2 2 2 2.</_></rects>
      <tilted>0</tilted></_>
    <_>
      <rects>
        <_>
          4 0 6 5 -1.</_>
        <_>
          6 0 2 5 3.</_></rects>
      <tilted>0</tilted></_>
    <_>
      <rects>
        <_>
          4 2 12 8 -1.</_>
        <_>
          7 2 6 8 2.</_></rects>
      <tilted>0</tilted></_>
    <_>
      <rects>
        <_>
          4 2 8 2 -1.</_>
        <_>
          4 2 4 1 2.</_>
        <_>
          8 3 4 1 2.</_></rects>
      <tilted>0</tilted></_>
    <_>
      <rects>
        <_>
          4 2 12 2 -1.</_>
        <_>
          4 2 6 1 2.</_>
        <_>
          10 3 6 1 2.</_></rects>
      <tilted>0</tilted></_>
    <_>
      <rects>
        <_>
          4 3 2 2 -1.</_>
        <_>
          4 4 2 1 2.</_></rects>
      <tilted>0</tilted></_>
    <_>
      <rects>
        <_>
          4 3 3 3 -1.</_>
        <_>
          4 4 3 1 3.</_></rects>
      <tilted>0</tilted></_>
    <_>
      <rects>
        <_>
          4 3 12 7 -1.</_>
        <_>
          7 3 6 7 2.</_></rects>
      <tilted>0</tilted></_>
    <_>
      <rects>
        <_>
          4 3 16 1 -1.</_>
        <_>
          12 3 8 1 2.</_></rects>
      <tilted>0</tilted></_>
    <_>
      <rects>
        <_>
          4 4 2 2 -1.</_>
        <_>
          4 4 1 1 2.</_>
        <_>
          5 5 1 1 2.</_></rects>
      <tilted>0</tilted></_>
    <_>
      <rects>
        <_>
          4 4 15 3 -1.</_>
        <_>
          4 5 15 1 3.</_></rects>
      <tilted>0</tilted></_>
    <_>
      <rects>
        <_>
          4 5 2 2 -1.</_>
        <_>
          4 5 1 1 2.</_>
        <_>
          5 6 1 1 2.</_></rects>
      <tilted>0</tilted></_>
    <_>
      <rects>
        <_>
          4 5 21 2 -1.</_>
        <_>
          11 5 7 2 3.</_></rects>
      <tilted>0</tilted></_>
    <_>
      <rects>
        <_>
          4 5 14 4 -1.</_>
        <_>
          4 5 7 2 2.</_>
        <_>
          11 7 7 2 2.</_></rects>
      <tilted>0</tilted></_>
    <_>
      <rects>
        <_>
          4 6 2 2 -1.</_>
        <_>
          4 6 1 1 2.</_>
        <_>
          5 7 1 1 2.</_></rects>
      <tilted>0</tilted></_>
    <_>
      <rects>
        <_>
          4 6 8 2 -1.</_>
        <_>
          4 6 4 1 2.</_>
        <_>
          8 7 4 1 2.</_></rects>
      <tilted>0</tilted></_>
    <_>
      <rects>
        <_>
          4 6 12 4 -1.</_>
        <_>
          4 6 6 2 2.</_>
        <_>
          10 8 6 2 2.</_></rects>
      <tilted>0</tilted></_>
    <_>
      <rects>
        <_>
          4 7 3 1 -1.</_>
        <_>
          5 7 1 1 3.</_></rects>
      <tilted>0</tilted></_>
    <_>
      <rects>
        <_>
          4 7 2 2 -1.</_>
        <_>
          4 7 1 1 2.</_>
        <_>
          5 8 1 1 2.</_></rects>
      <tilted>0</tilted></_>
    <_>
      <rects>
        <_>
          5 0 15 9 -1.</_>
        <_>
          10 3 5 3 9.</_></rects>
      <tilted>0</tilted></_>
    <_>
      <rects>
        <_>
          5 1 6 9 -1.</_>
        <_>
          7 1 2 9 3.</_></rects>
      <tilted>0</tilted></_>
    <_>
      <rects>
        <_>
          5 2 12 3 -1.</_>
        <_>
          9 3 4 1 9.</_></rects>
      <tilted>0</tilted></_>
    <_>
      <rects>
        <_>
          5 3 2 2 -1.</_>
        <_>
          5 3 1 1 2.</_>
        <_>
          6 4 1 1 2.</_></rects>
      <tilted>0</tilted></_>
    <_>
      <rects>
        <_>
          5 3 2 3 -1.</_>
        <_>
          5 4 2 1 3.</_></rects>
      <tilted>0</tilted></_>
    <_>
      <rects>
        <_>
          5 3 4 3 -1.</_>
        <_>
          5 4 4 1 3.</_></rects>
      <tilted>0</tilted></_>
    <_>
      <rects>
        <_>
          5 3 16 7 -1.</_>
        <_>
          13 3 8 7 2.</_></rects>
      <tilted>0</tilted></_>
    <_>
      <rects>
        <_>
          5 5 1 3 -1.</_>
        <_>
          5 6 1 1 3.</_></rects>
      <tilted>0</tilted></_>
    <_>
      <rects>
        <_>
          5 5 2 3 -1.</_>
        <_>
          5 6 2 1 3.</_></rects>
      <tilted>0</tilted></_>
    <_>
      <rects>
        <_>
          5 5 6 4 -1.</_>
        <_>
          7 5 2 4 3.</_></rects>
      <tilted>0</tilted></_>
    <_>
      <rects>
        <_>
          5 6 2 3 -1.</_>
        <_>
          5 7 2 1 3.</_></rects>
      <tilted>0</tilted></_>
    <_>
      <rects>
        <_>
          5 6 6 2 -1.</_>
        <_>
          5 6 3 1 2.</_>
        <_>
          8 7 3 1 2.</_></rects>
      <tilted>0</tilted></_>
    <_>
      <rects>
        <_>
          5 6 18 1 -1.</_>
        <_>
          11 6 6 1 3.</_></rects>
      <tilted>0</tilted></_>
    <_>
      <rects>
        <_>
          5 6 16 2 -1.</_>
        <_>
          5 6 8 1 2.</_>
        <_>
          13 7 8 1 2.</_></rects>
      <tilted>0</tilted></_>
    <_>
      <rects>
        <_>
          5 7 3 1 -1.</_>
        <_>
          6 7 1 1 3.</_></rects>
      <tilted>0</tilted></_>
    <_>
      <rects>
        <_>
          5 7 4 1 -1.</_>
        <_>
          6 7 2 1 2.</_></rects>
      <tilted>0</tilted></_>
    <_>
      <rects>
        <_>
          5 7 3 2 -1.</_>
        <_>
          6 7 1 2 3.</_></rects>
      <tilted>0</tilted></_>
    <_>
      <rects>
        <_>
          5 7 12 1 -1.</_>
        <_>
          8 7 6 1 2.</_></rects>
      <tilted>0</tilted></_>
    <_>
      <rects>
        <_>
          6 0 10 8 -1.</_>
        <_>
          11 0 5 8 2.</_></rects>
      <tilted>0</tilted></_>
    <_>
      <rects>
        <_>
          6 0 6 4 -1.</_>
        <_>
          5 1 6 2 2.</_></rects>
      <tilted>1</tilted></_>
    <_>
      <rects>
        <_>
          6 1 2 5 -1.</_>
        <_>
          6 1 1 5 2.</_></rects>
      <tilted>1</tilted></_>
    <_>
      <rects>
        <_>
          6 1 12 8 -1.</_>
        <_>
          10 1 4 8 3.</_></rects>
      <tilted>0</tilted></_>
    <_>
      <rects>
        <_>
          6 2 3 4 -1.</_>
        <_>
          7 2 1 4 3.</_></rects>
      <tilted>0</tilted></_>
    <_>
      <rects>
        <_>
          6 2 6 1 -1.</_>
        <_>
          9 2 3 1 2.</_></rects>
      <tilted>0</tilted></_>
    <_>
      <rects>
        <_>
          6 2 12 8 -1.</_>
        <_>
          10 2 4 8 3.</_></rects>
      <tilted>0</tilted></_>
    <_>
      <rects>
        <_>
          6 3 2 4 -1.</_>
        <_>
          6 3 1 2 2.</_>
        <_>
          7 5 1 2 2.</_></rects>
      <tilted>0</tilted></_>
    <_>
      <rects>
        <_>
          6 4 2 2 -1.</_>
        <_>
          6 4 1 1 2.</_>
        <_>
          7 5 1 1 2.</_></rects>
      <tilted>0</tilted></_>
    <_>
      <rects>
        <_>
          6 4 2 3 -1.</_>
        <_>
          7 4 1 3 2.</_></rects>
      <tilted>0</tilted></_>
    <_>
      <rects>
        <_>
          6 4 3 6 -1.</_>
        <_>
          7 4 1 6 3.</_></rects>
      <tilted>0</tilted></_>
    <_>
      <rects>
        <_>
          6 4 10 1 -1.</_>
        <_>
          11 4 5 1 2.</_></rects>
      <tilted>0</tilted></_>
    <_>
      <rects>
        <_>
          6 4 12 4 -1.</_>
        <_>
          6 4 6 2 2.</_>
        <_>
          12 6 6 2 2.</_></rects>
      <tilted>0</tilted></_>
    <_>
      <rects>
        <_>
          6 4 16 3 -1.</_>
        <_>
          14 4 8 3 2.</_></rects>
      <tilted>0</tilted></_>
    <_>
      <rects>
        <_>
          6 5 1 3 -1.</_>
        <_>
          6 6 1 1 3.</_></rects>
      <tilted>0</tilted></_>
    <_>
      <rects>
        <_>
          6 5 3 3 -1.</_>
        <_>
          7 5 1 3 3.</_></rects>
      <tilted>0</tilted></_>
    <_>
      <rects>
        <_>
          6 5 5 4 -1.</_>
        <_>
          6 7 5 2 2.</_></rects>
      <tilted>0</tilted></_>
    <_>
      <rects>
        <_>
          6 6 2 2 -1.</_>
        <_>
          6 6 1 1 2.</_>
        <_>
          7 7 1 1 2.</_></rects>
      <tilted>0</tilted></_>
    <_>
      <rects>
        <_>
          6 6 5 2 -1.</_>
        <_>
          6 7 5 1 2.</_></rects>
      <tilted>0</tilted></_>
    <_>
      <rects>
        <_>
          6 7 3 3 -1.</_>
        <_>
          7 7 1 3 3.</_></rects>
      <tilted>0</tilted></_>
    <_>
      <rects>
        <_>
          6 7 4 2 -1.</_>
        <_>
          6 7 2 1 2.</_>
        <_>
          8 8 2 1 2.</_></rects>
      <tilted>0</tilted></_>
    <_>
      <rects>
        <_>
          7 0 3 3 -1.</_>
        <_>
          8 1 1 1 9.</_></rects>
      <tilted>0</tilted></_>
    <_>
      <rects>
        <_>
          7 0 13 4 -1.</_>
        <_>
          7 2 13 2 2.</_></rects>
      <tilted>0</tilted></_>
    <_>
      <rects>
        <_>
          7 1 8 6 -1.</_>
        <_>
          7 4 8 3 2.</_></rects>
      <tilted>0</tilted></_>
    <_>
      <rects>
        <_>
          7 1 16 6 -1.</_>
        <_>
          7 1 8 3 2.</_>
        <_>
          15 4 8 3 2.</_></rects>
      <tilted>0</tilted></_>
    <_>
      <rects>
        <_>
          7 1 17 4 -1.</_>
        <_>
          7 2 17 2 2.</_></rects>
      <tilted>0</tilted></_>
    <_>
      <rects>
        <_>
          7 2 3 1 -1.</_>
        <_>
          8 2 1 1 3.</_></rects>
      <tilted>0</tilted></_>
    <_>
      <rects>
        <_>
          7 2 3 3 -1.</_>
        <_>
          8 3 1 3 3.</_></rects>
      <tilted>1</tilted></_>
    <_>
      <rects>
        <_>
          7 2 12 2 -1.</_>
        <_>
          7 2 6 1 2.</_>
        <_>
          13 3 6 1 2.</_></rects>
      <tilted>0</tilted></_>
    <_>
      <rects>
        <_>
          7 2 14 6 -1.</_>
        <_>
          7 2 7 3 2.</_>
        <_>
          14 5 7 3 2.</_></rects>
      <tilted>0</tilted></_>
    <_>
      <rects>
        <_>
          7 2 16 1 -1.</_>
        <_>
          15 2 8 1 2.</_></rects>
      <tilted>0</tilted></_>
    <_>
      <rects>
        <_>
          7 2 16 6 -1.</_>
        <_>
          7 2 8 3 2.</_>
        <_>
          15 5 8 3 2.</_></rects>
      <tilted>0</tilted></_>
    <_>
      <rects>
        <_>
          7 3 6 5 -1.</_>
        <_>
          9 3 2 5 3.</_></rects>
      <tilted>0</tilted></_>
    <_>
      <rects>
        <_>
          7 3 6 7 -1.</_>
        <_>
          9 3 2 7 3.</_></rects>
      <tilted>0</tilted></_>
    <_>
      <rects>
        <_>
          7 3 9 6 -1.</_>
        <_>
          10 3 3 6 3.</_></rects>
      <tilted>0</tilted></_>
    <_>
      <rects>
        <_>
          7 3 15 3 -1.</_>
        <_>
          12 4 5 1 9.</_></rects>
      <tilted>0</tilted></_>
    <_>
      <rects>
        <_>
          7 3 8 4 -1.</_>
        <_>
          7 4 8 2 2.</_></rects>
      <tilted>0</tilted></_>
    <_>
      <rects>
        <_>
          7 4 6 6 -1.</_>
        <_>
          9 4 2 6 3.</_></rects>
      <tilted>0</tilted></_>
    <_>
      <rects>
        <_>
          7 4 6 2 -1.</_>
        <_>
          7 4 3 1 2.</_>
        <_>
          10 5 3 1 2.</_></rects>
      <tilted>0</tilted></_>
    <_>
      <rects>
        <_>
          7 5 18 2 -1.</_>
        <_>
          13 5 6 2 3.</_></rects>
      <tilted>0</tilted></_>
    <_>
      <rects>
        <_>
          7 5 14 2 -1.</_>
        <_>
          7 5 7 1 2.</_>
        <_>
          14 6 7 1 2.</_></rects>
      <tilted>0</tilted></_>
    <_>
      <rects>
        <_>
          7 6 2 2 -1.</_>
        <_>
          7 6 1 1 2.</_>
        <_>
          8 7 1 1 2.</_></rects>
      <tilted>0</tilted></_>
    <_>
      <rects>
        <_>
          7 6 3 3 -1.</_>
        <_>
          8 7 1 1 9.</_></rects>
      <tilted>0</tilted></_>
    <_>
      <rects>
        <_>
          7 6 4 3 -1.</_>
        <_>
          8 6 2 3 2.</_></rects>
      <tilted>0</tilted></_>
    <_>
      <rects>
        <_>
          7 6 4 4 -1.</_>
        <_>
          7 7 4 2 2.</_></rects>
      <tilted>0</tilted></_>
    <_>
      <rects>
        <_>
          7 6 9 4 -1.</_>
        <_>
          7 8 9 2 2.</_></rects>
      <tilted>0</tilted></_>
    <_>
      <rects>
        <_>
          7 7 14 2 -1.</_>
        <_>
          7 7 7 1 2.</_>
        <_>
          14 8 7 1 2.</_></rects>
      <tilted>0</tilted></_>
    <_>
      <rects>
        <_>
          7 8 18 1 -1.</_>
        <_>
          13 8 6 1 3.</_></rects>
      <tilted>0</tilted></_>
    <_>
      <rects>
        <_>
          8 0 1 10 -1.</_>
        <_>
          8 5 1 5 2.</_></rects>
      <tilted>0</tilted></_>
    <_>
      <rects>
        <_>
          8 0 8 2 -1.</_>
        <_>
          8 0 4 1 2.</_>
        <_>
          12 1 4 1 2.</_></rects>
      <tilted>0</tilted></_>
    <_>
      <rects>
        <_>
          8 1 12 9 -1.</_>
        <_>
          11 1 6 9 2.</_></rects>
      <tilted>0</tilted></_>
    <_>
      <rects>
        <_>
          8 1 12 2 -1.</_>
        <_>
          8 1 6 1 2.</_>
        <_>
          14 2 6 1 2.</_></rects>
      <tilted>0</tilted></_>
    <_>
      <rects>
        <_>
          8 2 4 4 -1.</_>
        <_>
          8 4 4 2 2.</_></rects>
      <tilted>0</tilted></_>
    <_>
      <rects>
        <_>
          8 2 16 6 -1.</_>
        <_>
          8 2 8 3 2.</_>
        <_>
          16 5 8 3 2.</_></rects>
      <tilted>0</tilted></_>
    <_>
      <rects>
        <_>
          8 3 12 5 -1.</_>
        <_>
          12 3 4 5 3.</_></rects>
      <tilted>0</tilted></_>
    <_>
      <rects>
        <_>
          8 3 15 6 -1.</_>
        <_>
          13 5 5 2 9.</_></rects>
      <tilted>0</tilted></_>
    <_>
      <rects>
        <_>
          8 4 1 4 -1.</_>
        <_>
          8 5 1 2 2.</_></rects>
      <tilted>0</tilted></_>
    <_>
      <rects>
        <_>
          8 4 6 5 -1.</_>
        <_>
          11 4 3 5 2.</_></rects>
      <tilted>0</tilted></_>
    <_>
      <rects>
        <_>
          8 4 10 5 -1.</_>
        <_>
          13 4 5 5 2.</_></rects>
      <tilted>0</tilted></_>
    <_>
      <rects>
        <_>
          8 6 1 3 -1.</_>
        <_>
          8 7 1 1 3.</_></rects>
      <tilted>0</tilted></_>
    <_>
      <rects>
        <_>
          8 6 4 3 -1.</_>
        <_>
          10 6 2 3 2.</_></rects>
      <tilted>0</tilted></_>
    <_>
      <rects>
        <_>
          8 6 9 3 -1.</_>
        <_>
          11 6 3 3 3.</_></rects>
      <tilted>0</tilted></_>
    <_>
      <rects>
        <_>
          8 6 5 4 -1.</_>
        <_>
          8 7 5 2 2.</_></rects>
      <tilted>0</tilted></_>
    <_>
      <rects>
        <_>
          8 7 10 2 -1.</_>
        <_>
          8 7 5 1 2.</_>
        <_>
          13 8 5 1 2.</_></rects>
      <tilted>0</tilted></_>
    <_>
      <rects>
        <_>
          9 0 14 2 -1.</_>
        <_>
          9 1 14 1 2.</_></rects>
      <tilted>0</tilted></_>
    <_>
      <rects>
        <_>
          9 3 2 2 -1.</_>
        <_>
          9 3 1 1 2.</_>
        <_>
          10 4 1 1 2.</_></rects>
      <tilted>0</tilted></_>
    <_>
      <rects>
        <_>
          9 3 3 2 -1.</_>
        <_>
          10 3 1 2 3.</_></rects>
      <tilted>0</tilted></_>
    <_>
      <rects>
        <_>
          9 3 4 2 -1.</_>
        <_>
          9 3 2 1 2.</_>
        <_>
          11 4 2 1 2.</_></rects>
      <tilted>0</tilted></_>
    <_>
      <rects>
        <_>
          9 3 9 1 -1.</_>
        <_>
          12 3 3 1 3.</_></rects>
      <tilted>0</tilted></_>
    <_>
      <rects>
        <_>
          9 3 9 7 -1.</_>
        <_>
          12 3 3 7 3.</_></rects>
      <tilted>0</tilted></_>
    <_>
      <rects>
        <_>
          9 3 10 6 -1.</_>
        <_>
          9 3 5 3 2.</_>
        <_>
          14 6 5 3 2.</_></rects>
      <tilted>0</tilted></_>
    <_>
      <rects>
        <_>
          9 4 6 5 -1.</_>
        <_>
          12 4 3 5 2.</_></rects>
      <tilted>0</tilted></_>
    <_>
      <rects>
        <_>
          9 6 4 1 -1.</_>
        <_>
          10 6 2 1 2.</_></rects>
      <tilted>0</tilted></_>
    <_>
      <rects>
        <_>
          9 6 6 1 -1.</_>
        <_>
          11 6 2 1 3.</_></rects>
      <tilted>0</tilted></_>
    <_>
      <rects>
        <_>
          9 6 10 2 -1.</_>
        <_>
          14 6 5 2 2.</_></rects>
      <tilted>0</tilted></_>
    <_>
      <rects>
        <_>
          9 7 2 2 -1.</_>
        <_>
          10 7 1 2 2.</_></rects>
      <tilted>0</tilted></_>
    <_>
      <rects>
        <_>
          9 7 4 3 -1.</_>
