<?xml version="1.0"?>
<opencv_storage>
<stage15>
  <maxWeakCount>22</maxWeakCount>
  <stageThreshold>-7.8419929742813110e-01</stageThreshold>
  <weakClassifiers>
    <_>
      <internalNodes>
        0 -1 33091 -1.7061104997992516e-02</internalNodes>
      <leafValues>
        5.1578944921493530e-01 -1.8509316444396973e-01</leafValues></_>
    <_>
      <internalNodes>
        0 -1 9588 7.9096317291259766e-02</internalNodes>
      <leafValues>
        2.9225792735815048e-02 -6.6374754905700684e-01</leafValues></_>
    <_>
      <internalNodes>
        0 -1 26566 2.2160466760396957e-02</internalNodes>
      <leafValues>
        1.8528759479522705e-01 -4.0549057722091675e-01</leafValues></_>
    <_>
      <internalNodes>
        0 -1 8084 -3.5520344972610474e-03</internalNodes>
      <leafValues>
        1.9642443954944611e-01 -2.4962605535984039e-01</leafValues></_>
    <_>
      <internalNodes>
        0 -1 9093 -2.7729498688131571e-03</internalNodes>
      <leafValues>
        -3.4120789170265198e-01 1.7026305198669434e-01</leafValues></_>
    <_>
      <internalNodes>
        0 -1 41859 -3.3853933215141296e-02</internalNodes>
      <leafValues>
        -8.3054453134536743e-01 6.0624334961175919e-02</leafValues></_>
    <_>
      <internalNodes>
        0 -1 18937 -1.0229231789708138e-02</internalNodes>
      <leafValues>
        4.2119210958480835e-01 -1.3473527133464813e-01</leafValues></_>
    <_>
      <internalNodes>
        0 -1 21339 -1.3002546131610870e-01</internalNodes>
      <leafValues>
        5.6990170478820801e-01 -1.0496749728918076e-01</leafValues></_>
    <_>
      <internalNodes>
        0 -1 39244 1.2142013758420944e-02</internalNodes>
      <leafValues>
        -7.8452281653881073e-02 4.5018610358238220e-01</leafValues></_>
    <_>
      <internalNodes>
        0 -1 17243 -4.0778949856758118e-02</internalNodes>
      <leafValues>
        3.8738739490509033e-01 -1.1770405620336533e-01</leafValues></_>
    <_>
      <internalNodes>
        0 -1 17839 -3.0296301469206810e-02</internalNodes>
      <leafValues>
        -3.3535993099212646e-01 1.4899311959743500e-01</leafValues></_>
    <_>
      <internalNodes>
        0 -1 42808 2.0876470953226089e-02</internalNodes>
      <leafValues>
        -6.8356551229953766e-02 6.0329246520996094e-01</leafValues></_>
    <_>
      <internalNodes>
        0 -1 21626 2.1638546884059906e-01</internalNodes>
      <leafValues>
        6.6832534968852997e-02 -8.5985606908798218e-01</leafValues></_>
    <_>
      <internalNodes>
        0 -1 30715 -1.2000222690403461e-02</internalNodes>
      <leafValues>
        5.1831376552581787e-01 -1.0225711017847061e-01</leafValues></_>
    <_>
      <internalNodes>
        0 -1 21053 9.8230823874473572e-02</internalNodes>
      <leafValues>
        7.6376274228096008e-02 -7.8119939565658569e-01</leafValues></_>
    <_>
      <internalNodes>
        0 -1 41296 -3.0175684951245785e-03</internalNodes>
      <leafValues>
        2.4612197279930115e-01 -2.0849162340164185e-01</leafValues></_>
    <_>
      <internalNodes>
        0 -1 16392 -5.1696039736270905e-03</internalNodes>
      <leafValues>
        2.8148823976516724e-01 -1.6429468989372253e-01</leafValues></_>
    <_>
      <internalNodes>
        0 -1 13532 1.1961109936237335e-02</internalNodes>
      <leafValues>
        -1.1764807254076004e-01 4.8920226097106934e-01</leafValues></_>
    <_>
      <internalNodes>
        0 -1 39464 5.3501196205615997e-02</internalNodes>
      <leafValues>
        -8.4116041660308838e-02 5.1179862022399902e-01</leafValues></_>
    <_>
      <internalNodes>
        0 -1 9830 -6.4267247915267944e-02</internalNodes>
      <leafValues>
        4.9722197651863098e-01 -9.5197871327400208e-02</leafValues></_>
    <_>
      <internalNodes>
        0 -1 3204 1.6068153083324432e-02</internalNodes>
      <leafValues>
        1.1397500336170197e-01 -4.5762702822685242e-01</leafValues></_>
    <_>
      <internalNodes>
        0 -1 34880 1.2111335992813110e-02</internalNodes>
      <leafValues>
        -1.4443516731262207e-01 3.9620402455329895e-01</leafValues></_></weakClassifiers></stage15>
</opencv_storage>
