<?xml version="1.0"?>
<opencv_storage>
<stage18>
  <maxWeakCount>19</maxWeakCount>
  <stageThreshold>-8.4654521942138672e-01</stageThreshold>
  <weakClassifiers>
    <_>
      <internalNodes>
        0 -1 35828 1.0816801339387894e-02</internalNodes>
      <leafValues>
        -1.9649562239646912e-01 5.6435644626617432e-01</leafValues></_>
    <_>
      <internalNodes>
        0 -1 10939 3.4654594957828522e-02</internalNodes>
      <leafValues>
        1.9492180645465851e-01 -2.9362419247627258e-01</leafValues></_>
    <_>
      <internalNodes>
        0 -1 43309 -1.1352984234690666e-02</internalNodes>
      <leafValues>
        7.3408973217010498e-01 -1.0925881564617157e-01</leafValues></_>
    <_>
      <internalNodes>
        0 -1 40169 1.5986993908882141e-02</internalNodes>
      <leafValues>
        -1.9098664820194244e-01 3.0500513315200806e-01</leafValues></_>
    <_>
      <internalNodes>
        0 -1 14313 -1.3481953740119934e-01</internalNodes>
      <leafValues>
        6.7370307445526123e-01 -7.8538924455642700e-02</leafValues></_>
    <_>
      <internalNodes>
        0 -1 35828 -1.1126993224024773e-02</internalNodes>
      <leafValues>
        5.2957850694656372e-01 -1.0150987654924393e-01</leafValues></_>
    <_>
      <internalNodes>
        0 -1 39266 -4.6931621618568897e-03</internalNodes>
      <leafValues>
        5.9920495748519897e-01 -6.6593408584594727e-02</leafValues></_>
    <_>
      <internalNodes>
        0 -1 33617 4.1599795222282410e-02</internalNodes>
      <leafValues>
        1.0902541130781174e-01 -5.5942356586456299e-01</leafValues></_>
    <_>
      <internalNodes>
        0 -1 31420 6.8458328023552895e-03</internalNodes>
      <leafValues>
        -2.0782864093780518e-01 3.5475134849548340e-01</leafValues></_>
    <_>
      <internalNodes>
        0 -1 27070 1.8901422154158354e-03</internalNodes>
      <leafValues>
        1.6560758650302887e-01 -3.7712478637695312e-01</leafValues></_>
    <_>
      <internalNodes>
        0 -1 29278 2.0640946924686432e-02</internalNodes>
      <leafValues>
        -7.0688448846340179e-02 7.3475390672683716e-01</leafValues></_>
    <_>
      <internalNodes>
        0 -1 26928 2.0594301167875528e-03</internalNodes>
      <leafValues>
        1.7832703888416290e-01 -3.4546208381652832e-01</leafValues></_>
    <_>
      <internalNodes>
        0 -1 38700 -6.8693706998601556e-04</internalNodes>
      <leafValues>
        3.9910081028938293e-01 -1.6225628554821014e-01</leafValues></_>
    <_>
      <internalNodes>
        0 -1 14509 -4.4441767036914825e-02</internalNodes>
      <leafValues>
        5.3397214412689209e-01 -1.6166670620441437e-01</leafValues></_>
    <_>
      <internalNodes>
        0 -1 31295 5.3993813693523407e-02</internalNodes>
      <leafValues>
        1.0048043727874756e-01 -7.9924082756042480e-01</leafValues></_>
    <_>
      <internalNodes>
        0 -1 27276 9.4760889187455177e-03</internalNodes>
      <leafValues>
        -1.4282138645648956e-01 5.3429836034774780e-01</leafValues></_>
    <_>
      <internalNodes>
        0 -1 34532 -1.5609862748533487e-03</internalNodes>
      <leafValues>
        2.1835741400718689e-01 -3.2812532782554626e-01</leafValues></_>
    <_>
      <internalNodes>
        0 -1 30104 3.4360387362539768e-03</internalNodes>
      <leafValues>
        -1.3702011108398438e-01 4.4275695085525513e-01</leafValues></_>
    <_>
      <internalNodes>
        0 -1 5718 1.2750364840030670e-02</internalNodes>
      <leafValues>
        -1.5123236179351807e-01 4.6100130677223206e-01</leafValues></_></weakClassifiers></stage18>
</opencv_storage>
